1227 64
tea -0.02396589 -0.22307457 0.10479169 -0.027603995 0.07002408 -0.123791024 0.12193716 -0.050230037 -0.07665222 0.0793486 -0.031528097 0.06923161 -0.05740879 -0.082051024 -0.07622746 0.18682261 0.023521982 0.13595551 0.004840838 0.09491012 0.055733263 0.07631359 -0.060198795 0.07064778 0.06465253 0.10682368 -0.038390778 -0.039656546 -0.13617365 0.12295495 -0.058430582 -0.10692467 0.092518196 0.010850444 -0.092950836 -0.025177388 0.050050847 -0.1370059 0.001856657 0.09029189 -0.015757002 0.058603 -0.22383471 -0.0004365976 0.0033962086 0.08607559 -0.048390646 -0.15391654 0.00089440716 0.07590848 0.06816813 0.14506172 0.08327325 -0.08239912 0.03599087 0.115943685 0.017475262 -0.12003613 -0.17497048 0.028380381 -0.14292999 -0.093765326 0.1292629 -0.032907512
apple 0.019742094 -0.13669477 0.022951838 -0.011954621 0.08265031 -0.19443758 0.029267091 -0.1033798 -0.07144107 0.060359083 -0.119288564 0.0020164635 -0.009432939 -0.013598632 0.08525639 0.014774079 -0.06654677 0.07880211 0.099947535 0.03277561 0.07809342 0.0094814515 -0.031355698 -7.719015e-06 0.0153545765 0.071328074 0.12471576 -0.07075906 -0.080140166 0.09461689 -0.05339965 0.0039274506 0.06607391 -0.065304615 -0.06772288 0.023923421 0.024870252 -0.006983411 0.09619334 0.058576234 -0.0074710255 0.041834615 -0.13615462 0.009083625 0.11440426 0.0594667 -0.14593244 -0.18273275 -0.03002156 0.009783387 0.08126287 0.081863776 0.053872757 -0.13722922 -0.11423123 0.08199766 0.09452432 -0.023147432 -0.20111623 0.07404878 -0.24258915 -0.2012729 0.048996575 0.03485446
beer 0.053538725 -0.22442725 0.05181795 -0.0003200286 0.16296084 -0.10454897 -0.104733385 -0.021219553 -0.103726014 0.0602161 -0.018132491 0.053223062 0.06172307 0.073774055 -0.046093117 0.14034732 0.07134715 0.017485289 -0.055194072 -0.00068194413 0.11633171 0.15282585 0.0748142 0.0020714065 0.032282304 0.08655771 0.10810971 -0.11297528 -0.09370879 0.062946275 -0.14242513 0.08964071 0.12658973 -0.22621273 0.00063560565 0.12142312 -0.0029633576 -0.023214998 0.107638076 0.0923013 0.001362351 0.009677351 -0.19659315 -0.012092921 0.25189418 0.030255362 -0.06384934 -0.07172023 0.09208694 0.011708 0.13622917 0.11191973 0.03452632 -0.12023901 -0.016019596 0.06951346 -0.06867927 -0.12254816 -0.19385408 0.010793059 -0.19295686 0.019677563 0.13127217 0.005139881
soybean 0.11384718 -0.2098806 0.0050372835 -0.044248883 0.0037293935 -0.17985179 -0.017594315 -0.0050844536 -0.13235103 0.12563334 -0.021832839 -0.10143504 -0.0641598 0.031071022 0.007843911 0.043430425 0.098709 0.089666285 -0.012741867 0.04928513 -0.014814047 -0.006358674 -0.010998251 -0.06619197 -0.0069096405 0.032698605 -0.0020355578 -0.07927504 -0.06614252 0.0141711915 -0.043676194 -0.010493096 0.08522944 -0.031129172 0.020709 0.044922724 -0.008649333 -0.029292684 -0.009124459 0.00841847 -0.03372616 0.05366544 -0.0071996236 0.06303185 0.11463248 0.03984477 -0.0132004535 -0.20565851 -0.02617567 -0.021603348 0.011428878 0.11147823 0.064968795 -0.04674292 0.0011317406 0.12033624 0.11079942 -0.10662275 -0.15433384 -0.0055317427 -0.25731033 -0.0805934 0.09500028 0.035883147
angelica 0.07521579 -0.22956567 0.09647992 0.03134391 0.14332306 -0.21335931 0.035661537 -0.18015353 -0.033799406 0.115838744 0.012844757 0.0072650826 0.007678002 -0.031668436 -0.018364016 0.07163906 -0.056720752 0.04887589 0.05274213 -0.04054434 -0.012170607 0.02138824 -0.058427867 -0.021567548 -0.09988842 0.07777128 -0.01783312 -0.01852944 -0.13724403 0.0031948767 -0.05248799 0.0016847637 0.052169506 -0.07534945 -0.069645844 -0.07120504 0.120142154 0.0049883244 -0.015280771 0.046575867 -0.07248714 -0.0010732427 -0.13223402 0.081979536 0.083255745 -0.0026639935 -0.030952225 -0.08320037 -0.12101198 0.114016384 0.15873857 0.05487362 0.0462528 -0.042432208 -0.04123942 0.097352296 0.04459874 -0.084773846 -0.14515807 0.05421554 -0.10464384 -0.11640821 -0.0013384757 0.013901944
ginger 0.18150078 -0.15511732 0.0608706 -0.026431242 -0.025478361 -0.16560377 0.010429383 -0.08039335 -0.12552512 0.120051295 -0.007082594 -0.08355847 -0.07666006 -0.040767003 0.076600626 0.12950023 -0.013590519 0.1457927 0.023714243 -0.016658064 -0.051788244 -0.025625814 -0.08341739 -0.10575288 -0.047830347 0.018237753 0.102451965 -0.09224196 -0.09644895 0.042929675 -0.032710213 -0.02167434 0.064704806 -0.06626246 -0.07958918 0.015537705 -0.0045022713 -0.121548645 0.0024442575 0.089727625 -0.0019704965 -0.05875794 0.0029132203 0.062568806 0.11411649 0.051980525 -0.1707497 -0.101567544 -0.022254823 0.10551281 -0.07693443 0.11300236 -0.030112576 -0.010624213 -0.051183265 0.16025437 0.07932515 -0.107149705 -0.11918367 0.016164461 -0.11919058 -0.1822485 0.09509201 -0.0013080257
grape -0.044148326 -0.1762614 0.026484149 0.06894561 0.12737095 -0.13236555 0.11165337 0.02697555 -0.15684111 0.10899219 -0.041446634 -0.0313259 -0.05058143 -0.14746621 -0.0072266376 0.08535908 0.029563284 0.023879386 0.030948361 0.020942256 0.025406012 0.048774134 -0.017062897 -0.04808136 -0.021685828 0.013304854 0.048470203 -0.05511528 -0.10451424 0.009029843 -0.044705283 -0.084063284 0.04924539 -0.24791187 -0.06135609 0.03218829 -0.048997834 -0.13030681 0.08631352 0.100752294 -0.018468292 0.05792948 -0.07251363 0.02538224 0.13620622 -0.055358984 -0.03091013 -0.053139042 -0.028463777 0.034764655 0.089102186 0.087217 0.0023525332 -0.017815012 -0.13839844 0.08503421 0.06321271 0.020412544 -0.10962742 -0.0057082716 -0.25039235 -0.1238091 0.06496605 -0.010129163
green tea 0.04529809 -0.19048637 0.10055795 0.018979453 0.101744846 -0.16585127 0.07170949 -0.09089742 0.048239257 0.15098543 -0.03584973 -0.037378237 -0.02812524 -0.099861555 0.061099768 0.033702582 -0.04262202 0.042239025 -0.08361017 0.05747485 -0.066685095 0.033894345 -0.05393216 -0.009640721 0.044756107 0.06827344 0.023465632 -0.0937909 -0.008371652 -0.08055033 -0.034612462 -0.026190992 0.10392231 -0.11459091 0.007508793 0.021979546 -0.051173065 -0.020480033 0.046033733 0.19592586 -0.04961402 0.03340797 -0.11804435 0.0007440356 0.13996975 -0.019939693 -0.06217645 -0.11584457 -0.121374 0.050524916 0.016201654 -0.039435007 -0.036809377 -0.083710976 -0.10099987 0.11042906 0.065237656 -0.083495654 -0.21077627 0.060218252 -0.11502424 -0.14850189 0.09187364 0.081414856
silver linden 0.027247533 -0.24320187 0.10776814 -0.039517257 0.08028192 -0.11838597 -0.00510183 -0.035726827 -0.15022025 0.0027539607 -0.04080875 -0.0078012114 0.1331367 -0.092518106 0.016086599 0.10479148 0.073817015 -0.07110278 -0.060100827 0.028389575 0.110223174 0.016310101 -0.008787353 -0.08888694 0.0031122025 0.077429436 0.035149682 -0.098185964 -0.083175905 0.07547169 0.01693038 -0.06206449 0.088936105 -0.005309132 0.022358749 -0.03882406 0.026014667 0.024364218 0.011859302 0.12851626 -0.03163799 0.054572254 0.039623156 0.0045889965 -0.0005136325 0.10053278 -0.13142432 -0.18196136 -0.0076031624 0.07964066 -6.1106344e-05 0.18553235 0.04504623 -0.08300005 -0.09752138 0.07574125 0.042110167 -0.11140482 -0.11106272 0.08455717 -0.19826238 -0.2433646 -0.030491214 0.089973204
guava 0.091178596 -0.07832267 0.0092518255 -0.051737543 0.06752703 -0.10208551 0.019490482 -0.02545646 -0.08420388 0.049474258 0.071415216 -0.045146894 -0.06784883 -0.008067643 -0.006488774 0.19125558 -0.005901488 0.06575889 -0.03495041 0.040856145 -0.037469637 0.12662898 -0.050165895 0.05599779 0.019743612 0.13495333 0.015456465 -0.025287028 -0.06815157 0.0069975774 -0.030906538 -0.017299714 0.07823718 0.013126929 -0.030570555 0.030382643 -0.06388152 -0.049518522 0.05343712 0.057729013 -0.07140206 -0.06415945 -0.074675925 0.07063842 0.15622894 0.119081356 -0.08713364 -0.12478726 -0.012930624 0.017739996 0.09792448 0.12979455 0.092967115 0.022004452 -0.07509729 0.095948525 0.07909877 -0.067286834 -0.24109235 0.010309161 -0.19717874 -0.14079835 0.020661065 0.15957841
lovage 0.074149475 -0.31594577 0.041091297 0.018275429 0.07372451 -0.18707098 -0.020581061 -0.056766123 -0.016983937 0.15298097 0.08317619 -0.0568809 -0.023573495 -0.08407707 0.07139315 0.13654485 0.104205675 0.07741378 0.038890235 0.052920777 0.09133417 0.055674657 -0.05455922 0.038507476 0.00568012 0.019271387 -0.01855153 -0.025891738 0.011503885 -0.04438782 -0.02429919 0.038136557 0.045166858 -0.08318291 -0.0034914364 0.001163237 -0.06376015 -0.0646454 -0.050902568 0.12364377 -0.01457284 0.017848292 -0.03092358 0.026162788 0.11029934 -0.003169437 -0.07785424 -0.008137048 0.009000281 0.07137924 -0.039858088 0.16815138 0.006782117 -0.057991307 -0.107831754 0.09629715 0.049309656 -0.009128751 -0.13635466 0.02675408 -0.18459134 -0.13388404 0.16295716 0.06005084
plum wine -0.057969335 -0.18996626 0.041978937 -0.11577202 0.1332687 -0.10934984 0.121709146 -0.06650804 0.0260603 0.084849074 -0.06869063 -0.10429788 -0.10580603 -0.052970387 -0.0136163635 0.20607066 0.038043715 0.018747384 0.0625731 0.065350525 -0.012295152 0.0067699407 0.09337789 -0.022014942 -0.05248928 0.08466626 0.09726818 -0.14326937 -0.09265757 -0.019342553 -0.021206532 -0.01567304 -0.078280866 -0.1202597 -0.057003383 0.05945714 -0.03143083 0.034169927 0.055156168 0.1603144 -0.11244774 -0.03185993 -0.10062648 -0.018244825 0.07996899 0.0038078015 -0.06807762 -0.0898793 0.017909797 0.035252515 0.006978513 0.08861023 0.072654024 -0.18295622 -0.052015994 0.08510337 0.0818492 -0.18584318 -0.1206305 0.06899123 -0.19580135 -0.11259388 0.110589735 0.07707597
corn 0.10105408 -0.18685046 0.012452861 0.017134998 0.09957362 -0.08161558 0.06602269 -0.08578851 -0.12123748 0.097051755 -0.06674266 -0.045172546 -0.0940825 -0.024624681 0.12045075 0.08455092 -0.028742231 0.025147403 -0.046593297 0.16895367 0.002797342 0.05300331 -0.015959084 0.06842717 0.06833602 0.05468004 0.14539383 -0.043531112 -0.10408859 0.022628078 0.07966014 -0.025215037 0.074231714 -0.07137976 -0.04626843 0.06371359 0.029930763 -0.05951967 0.028011492 0.20277007 0.0063235667 -0.045801755 -0.033770245 0.13929841 0.07387403 0.15713327 0.059468117 -0.021946179 -0.121078275 -0.012117086 0.0811215 0.0728644 0.014566893 0.011209202 -0.024772903 0.14771305 0.09266054 -0.1387107 -0.16242507 -0.041962095 -0.18458821 -0.17057711 0.03731203 0.012517715
potato 0.03511709 -0.2040055 0.092474855 -0.03585624 0.1617644 -0.11102215 -0.08117232 -0.11290234 -0.124585964 0.18116134 -0.039917104 -0.068365514 -0.10947445 -0.08110033 -0.047287233 0.12891647 0.016202249 0.06474089 -0.05915622 0.055184957 0.0076763574 0.06758857 0.015404638 -0.06005736 0.03994862 0.021494031 0.108793505 0.03643834 0.0073866425 0.02266277 -0.055111356 -0.037332255 -0.021429835 -0.07993846 -0.026624558 0.024690675 0.070365116 -0.10986665 0.012659893 0.06024266 -0.06273404 -0.04517148 -0.07420206 -0.067185275 0.1375503 0.11975233 -0.09021909 -0.06936227 -0.04491277 -0.03600509 0.07838917 0.01724328 0.024955079 -0.051458698 -0.09499425 0.0736872 0.14445117 -0.05227685 -0.15109129 -0.069877304 -0.11020767 -0.14695136 0.03556912 0.13882166
coconut 0.07489031 -0.15735804 0.13839956 -0.03212081 0.070279524 -0.10969731 -0.034844674 -0.09528582 -0.06455117 0.101036735 -0.15007131 0.029085938 0.02902855 -0.031696387 -0.051322453 0.18310802 0.03403187 0.09617185 -0.118958525 0.022993078 -0.0039694835 0.09937309 -0.06823159 0.036439482 0.032151546 0.11479373 0.13181584 -0.033171766 -0.11668271 -0.055713013 -0.00949523 -0.014556897 -0.031522952 -0.1323918 -0.13381414 0.06537909 -0.046776023 -0.07664881 0.06688045 0.015090418 -0.054178596 0.01998548 -0.080321215 0.050689105 0.11550754 0.06150465 -0.03714192 -0.08285318 0.030357243 0.064965375 0.10761276 0.09093677 0.01740364 0.008405358 -0.12791806 0.024257792 0.043614462 -0.12500618 -0.10217145 -0.07941193 -0.2112556 -0.10705953 0.057368103 0.07720695
red wine 0.027123932 -0.2693348 0.008395409 0.09128061 0.014158407 -0.19721931 0.020555556 -0.14751986 -0.17077936 0.1199467 -0.09306574 -0.064659365 0.045846622 -0.072264016 0.0156189995 0.018636161 0.00941959 -0.024058303 0.06029841 0.007054009 -0.021788914 -0.016378332 -0.084637344 0.02026384 -0.018262817 0.048486225 0.054325398 -0.023013573 -0.14188835 -0.004183973 -0.10801815 -0.06559406 0.04668286 -0.100246206 -0.04878391 0.052660685 0.062863894 0.13693658 0.031293258 0.10840695 -0.024241595 0.10247879 -0.10182587 0.018892813 0.16970395 0.11882464 -0.12280122 -0.11835722 0.06315439 0.00694427 0.035574708 0.15553111 -0.109191164 -0.03110272 0.024975464 0.015161491 0.07578348 -0.17963156 -0.12550373 -0.0027117708 -0.11964668 -0.12902373 0.071699105 0.016740324
cheddar cheese 0.05053646 -0.20115715 -0.03897756 0.009656254 0.10641068 -0.1587408 0.053198867 -0.112293 -0.113944404 0.1542204 -0.07278773 0.041091867 -0.042588335 -0.085098006 0.043871433 0.14607868 0.037461903 -0.050884623 0.0057046223 -0.036175527 0.05913591 0.049198035 0.041063458 0.12744384 -0.03909469 -0.006745 -0.0077746655 -0.058512818 -0.09260992 -0.03909648 -0.06640705 -0.040903628 -0.001644124 -0.037349258 -0.010597978 0.027419535 0.008128869 -0.0062837745 0.020927975 0.13214312 0.044934876 0.07794319 -0.031034635 0.08059362 0.119588204 0.1326966 -0.12936713 -0.16347651 -0.12737712 -0.022037892 0.11363517 0.10118567 0.043859433 -0.07338792 -0.042566817 0.12507206 0.040829115 -0.056128573 -0.0779489 0.051954407 -0.15920387 -0.15955846 0.034246597 0.033269506
black tea 0.070267774 -0.2180595 0.16452892 0.04013268 0.060723618 -0.060002524 0.058309875 -0.07660701 -0.060278412 0.1402436 -0.09365219 -0.056543414 0.02694842 -0.061347008 0.050697185 0.14281113 0.040981166 0.065731816 0.045869716 0.052088954 -0.015251641 0.13128369 -0.110143356 0.010185845 0.00373539 0.058123752 0.07083631 -0.054494247 -0.07784721 0.0076016346 -0.07280755 -0.009111347 -0.04316267 -0.0888039 0.024505125 0.01120581 0.060453225 0.0012522297 -0.03722507 0.08985618 -0.0028329508 0.05021768 -0.18346302 0.014570489 0.06580056 0.06882947 -0.050619703 -0.12141663 0.041395262 -0.0993544 0.0007790054 0.115590334 0.010348571 -0.11435004 0.1284923 0.09332523 0.040675085 -0.1498097 -0.22631164 -0.006191175 -0.26647058 -0.10392121 0.06819487 -0.016226057
anise 0.08720787 -0.14456362 0.049406055 0.012165486 0.08008522 -0.11425978 0.034384046 -0.1429252 0.008783646 0.07749052 0.016140701 0.0018013513 0.011373903 -0.06350124 0.09495705 0.11133149 0.081767514 0.11090713 -0.06481545 0.033442333 0.12136176 0.07010224 0.013750923 -0.11385707 -0.023432747 -0.024602428 0.029717492 0.029073497 -0.03886164 0.022224482 -0.037968606 0.05295274 0.027064217 -0.08868323 -0.017769048 -0.09588717 0.13578077 -0.11872841 0.09366365 0.12145258 0.02676126 -0.024950601 -0.037292022 0.10059503 0.0072912113 0.07597806 -0.046500646 -0.12201753 -0.04145686 0.024206659 0.13976823 0.14772016 0.06458842 0.017197367 -0.06277905 0.060846783 0.12658095 -0.09540529 -0.2071986 0.017927013 -0.16442633 -0.1545715 0.06622357 0.07025398
capsicum 0.0659933 -0.19443962 0.06681488 -0.036407012 -0.017724924 -0.1967906 0.004998355 -0.061506364 -0.050723024 0.113147646 0.084842734 -0.048382323 -0.027728057 -0.02543006 -0.027478503 0.09323795 0.056856703 -0.007282107 0.041385535 0.14040431 0.070674375 -0.050708096 0.020856235 0.033692807 -0.07455237 0.05223756 -0.017454522 -0.0763822 -0.08289823 0.024125073 0.035432052 -0.0029282046 0.07147775 -0.06579554 0.07408759 0.035799637 0.02224575 -0.022523906 -0.005199312 0.02392941 -0.029197434 -0.018586192 -0.14795995 0.13276652 0.116520286 -0.014274994 -0.17719492 -0.12214705 0.066823326 0.062071133 0.1276887 0.14398877 0.043118265 0.018965991 -0.11701236 0.06265239 0.0031265984 -0.12195346 -0.15789416 0.047860578 -0.22916564 -0.043873325 0.028845577 -0.03729999
herbal tea 0.040646937 -0.27201256 0.18840156 0.03763972 0.047314476 -0.114736274 0.037065253 0.06371349 -0.05105878 0.13720235 0.028196687 0.035722185 0.018191507 -0.026120247 0.02633864 0.14980751 0.050725713 0.0678413 -0.034032464 -0.063825764 0.055393457 -0.045168024 -0.0915434 -0.0915876 -0.04003614 0.0020303517 -0.14091022 -0.08878925 -0.085754514 0.020226965 -0.014975122 -3.1010833e-05 0.025546195 -0.037697315 -0.118486375 -0.0857628 0.13264132 -0.099890456 -0.009574116 0.037768826 -0.0064463206 0.048138525 -0.048019618 0.013042279 0.0054477365 0.043763496 -0.112899184 -0.12443998 0.0057592546 0.02936231 0.098122835 0.12855858 -0.07365004 0.009650426 -0.03705791 0.13970733 0.028412707 -0.14468332 -0.1414941 -0.058483507 -0.23186591 -0.1851496 0.115177155 -0.051944822
pepper 0.14305215 -0.2217842 0.07139812 0.043396343 0.10907251 -0.043310612 0.14253476 -0.117350824 -0.10164965 0.11305006 -0.050975412 -0.04385336 -0.08326592 -0.06713654 -0.018378466 0.086638816 -0.031835165 0.08513711 -0.0076098423 -0.021820294 -0.018766126 0.052073453 0.025187643 -0.0329625 0.0045587556 0.069534235 -0.026942106 -0.028931687 -0.09861874 -0.014445249 -0.03321446 -0.037855458 0.043415222 -0.09997023 0.018582145 -0.026124975 0.0529471 0.0064305454 -0.0075818864 0.117945895 0.03969523 0.087325014 -0.040094778 0.09999136 0.10762833 0.053758882 -0.01599501 -0.04726677 -0.07938971 0.056036036 0.118542254 0.00010692116 0.044342734 -0.032880906 -0.07964547 0.02380079 0.07733233 -0.111021444 -0.040745556 0.06467382 -0.24746853 -0.14841951 0.019478204 0.041701455
cocoa 0.09862391 -0.070185855 0.02122237 -0.05395234 0.14288944 -0.23228773 0.044974413 -0.07131304 -0.05836349 0.11940112 -0.06459725 0.016195554 0.008151159 0.0102846585 -0.032013323 0.098032236 0.039855454 0.0984702 -0.02515376 0.08263864 0.04520155 0.0012675821 0.00022824125 0.058976155 0.0023182689 0.03964245 -0.083632365 -0.17694093 -0.20281447 -0.000760902 -0.058028415 -0.02522103 0.06790985 -0.15629074 0.05961562 0.05890909 -0.01902995 -0.045558885 0.11729443 0.11058026 -0.11158132 0.024533141 -0.058489192 -0.047688816 0.16289146 0.09953597 -0.0558468 -0.07702768 -0.039694276 -0.007901396 0.046605173 0.13044591 0.14188462 -0.03358348 -0.12885825 0.105594635 0.02866037 -0.100503564 -0.11672596 -0.06337036 -0.18735602 -0.03405565 0.08723419 0.0093026515
munster cheese 0.0565227 -0.1717022 0.0956563 0.027726164 0.07750091 -0.20803428 0.08467075 -0.083291955 -0.02582105 0.12164371 -0.07449685 -0.06920852 0.007946313 -0.100618586 -0.06548454 0.088955574 0.06420808 0.085320555 -0.02636146 0.061451785 0.05596394 -0.05466125 -0.109410055 -0.038595114 0.012261451 0.046392765 0.014186039 -0.11810819 -0.06539374 -0.020560004 0.0012916956 -0.041070227 0.056940228 -0.057005156 -0.12642702 -0.008825594 -0.0019989957 -0.029308164 0.14267036 0.08351167 -0.078264065 -0.002606199 0.016085213 0.09395962 0.115026854 0.095812194 -0.15584019 -0.108263 -0.042481646 0.037458353 0.036090177 0.1276052 0.16338283 -0.12437999 -0.016208112 0.08362992 0.017526986 -0.15603922 -0.13268013 -0.10363584 -0.040214177 -0.1029868 0.027941315 0.06598342
banana 0.060507733 -0.2251972 0.14104494 -0.08020109 -0.037560903 -0.21166813 0.07899535 -0.14647612 -0.0703683 0.052159507 -0.05482523 -0.15898365 -0.008947606 -0.038450934 -0.036349118 0.06588067 0.029407395 0.0064685415 0.11498703 0.038026065 -0.007598317 -0.057475302 -0.023216378 0.022759484 -0.16212901 -0.055122226 0.028524134 -0.0018722239 -0.03173906 0.020917984 -0.056469645 0.03954054 0.01590512 -0.11921572 -0.075621895 -0.025395468 0.02535023 0.03914678 0.07920078 0.10098796 -0.00021337713 -0.039346077 -0.07968417 0.01932623 0.081063755 -0.009695152 -0.17396681 -0.0603274 -0.07091032 0.027751971 0.1269969 0.12294672 -0.016250735 -0.03583808 -0.13662142 0.02790959 0.12248979 -0.047647703 -0.16325314 -0.01116352 -0.18100081 -0.1144328 0.12070027 0.025915448
mango 0.0035803933 -0.13354155 0.08811921 0.013494036 0.03630531 -0.19850346 0.06350805 -0.12462987 -0.18697198 0.10709164 -0.021958735 0.039679073 -0.0753532 -0.11897628 0.08744132 0.08441187 0.07472139 0.088613614 -0.12133598 0.010767828 0.041558474 0.0368773 0.002071434 -0.027840998 -0.04402248 -0.004841589 0.038443405 -0.026796268 -0.043965776 -0.06816072 -0.06586316 0.045023892 -0.035758927 -0.09788226 -0.020991426 0.05893159 0.029840484 0.03654644 0.022474756 0.20234889 0.019000964 -0.10680084 -0.085354015 0.031165404 0.03570935 0.0072821355 -0.09608695 -0.13507178 -0.034636997 0.096363075 0.034972765 0.13871756 0.1668887 -0.09866091 0.00749 0.014744209 0.043129236 -0.09868311 -0.1107469 -0.038966905 -0.19197935 -0.09248691 0.084089085 0.117859244
red tea 0.050971985 -0.20987743 0.078097716 0.0053651165 0.12643337 -0.10072394 0.06283184 -0.11791446 -0.010776881 0.084798686 -0.06552012 0.04057024 -0.13748005 -0.041079607 -0.018508635 0.20661882 0.029574633 0.04628339 -0.006131364 0.09094963 -0.037272304 -0.068759374 0.066254735 -0.009686074 -0.119716205 0.12162274 -0.017696358 -0.12193875 -0.09200298 -0.08350302 0.0027417627 0.0046365694 -0.013998489 -0.0042901463 -0.007349565 -0.0039545707 0.0759956 -0.04726947 0.023165809 0.11337344 -0.012662841 0.058727704 -0.02203707 -0.031365145 0.15573725 0.097329035 -0.031438347 -0.020076098 -0.0072607584 0.052198242 -0.004676354 0.13666354 0.0089262305 -0.074768156 -0.04573286 0.13941418 0.04606052 -0.16044377 -0.15838064 -0.061160635 -0.15616366 -0.10479049 0.06447053 0.064626485
apricot 0.040484685 -0.03872943 -0.0104115885 -0.08017067 0.0727794 -0.036512353 -0.03439911 -0.050725285 -0.0992053 0.067201495 -0.040912434 -0.1386661 -0.108136766 -0.089104176 -0.16915861 0.121023715 0.08175789 0.027963249 -0.032647453 -1.2431489e-05 -0.07908852 0.020025223 -0.060141474 -0.025810258 -0.044836145 0.055752136 -0.03748607 -0.027196383 -0.07358945 -0.0023815131 0.054537263 -0.044575717 0.05057129 -0.1686469 -0.114650324 -0.08768476 0.04966984 0.01902178 0.08277406 0.09503207 0.010712103 -0.04137035 -0.10112372 -0.01338051 0.17915761 0.018315611 -0.016305715 -0.115701705 -0.030517627 -0.024076331 0.122606605 0.2222814 0.039326686 -0.05256627 -0.098596156 0.05643079 0.10917664 -0.20520087 -0.17823711 0.10507246 -0.241015 0.028239548 0.07496631 -0.056836616
coriander 0.15859267 -0.23344702 0.11486009 -0.0057028886 0.057354435 -0.15737529 -0.076575555 -0.071920015 -0.12962943 0.063212745 -0.037225366 -0.08226828 -0.061579935 -0.123188585 -0.03959396 0.16035649 -0.016249638 0.039915122 -0.113889895 -0.050637897 0.09891333 0.09126325 0.030644266 -0.0942306 -0.0074081924 0.0066190735 -0.038993303 -0.007374059 -0.12343392 -0.029761964 0.00683105 -0.027963575 -0.055439074 -0.09716563 -0.06565017 -0.01724651 0.037119634 0.009152922 -0.043178905 0.030214388 0.02093292 -0.018076021 -0.051323693 0.077147566 0.06851423 0.015703898 -0.055785716 -0.1106522 0.01741362 0.04612605 0.10683841 0.13435434 -0.016789187 -0.08609929 -0.02577603 0.1363473 0.017657606 -0.13889024 -0.096088424 -0.09037927 -0.10969637 -0.09626912 0.0467009 -0.07543885
peach 0.08084717 -0.15408331 -0.01651932 -0.028868852 -0.014525504 -0.1623728 -0.024049556 -0.1703965 -0.13400446 0.004017943 0.10399604 -0.031646647 -0.10296831 -0.014804774 0.03847117 0.13452835 -0.044376757 0.013980987 0.061315473 0.065022044 0.03048783 0.07204046 -0.055262275 0.0017770275 0.0749013 0.10444064 0.05791134 -0.023587761 -0.091499604 -0.0637633 -0.0006856992 -0.08267953 0.05891627 -0.06185315 -0.085279055 0.0106809065 0.075382836 -0.040857997 -0.05547606 0.055635117 0.0022832968 -0.038033966 -0.0024327736 -0.046540048 0.074241556 0.039675932 -0.027325837 -0.1392474 0.057700634 0.031335153 0.049556497 0.10983514 0.09710462 -0.066909485 0.02290388 0.1309798 0.08210306 -0.06361337 -0.23146509 0.040127717 -0.18959786 -0.12342194 0.084249035 0.14645159
peanut 0.16014479 -0.14938521 0.124792516 0.00587989 0.17172998 -0.13778363 0.016919252 -0.03431178 -0.03382303 0.06184622 0.008446567 0.017772058 -0.08333868 -0.03989845 -0.038481575 0.12287238 -0.027488006 0.054361902 0.043875 -0.02613941 0.01476508 0.07899327 0.0395649 0.031792212 0.0050183833 0.1259372 -0.120573714 0.0013544633 -0.045222666 -0.09809699 -0.021260865 -0.10826521 0.040350083 -0.0375988 -0.18422364 0.03728974 -0.051104836 -0.01689454 -0.06932116 0.065466195 0.0049449815 0.081507854 -0.032749653 -0.08093428 0.038964115 -0.070390955 -0.08464245 -0.10864696 -0.026860729 -0.04205038 0.005385531 0.11005042 0.08054195 -0.0755211 -0.011796775 0.17840779 0.08670912 -0.15396553 -0.16479893 -0.0068524918 -0.108906314 -0.11180891 0.21108203 0.056182537
watercress 0.020044958 -0.158364 -0.016836409 0.007040268 0.17764358 -0.18339086 -0.07150963 -0.073063694 -0.15531681 0.22225453 0.0018780102 0.016048297 -0.05962806 -0.09993102 -0.012204086 0.17440405 0.054430135 -0.0066978373 -0.12242441 0.021749534 -0.021452677 -0.013579968 -0.11181276 -0.07035883 -0.00033486987 0.09627392 -0.016125303 -0.016435778 0.029989267 -0.089411005 0.045453064 -0.08094178 0.074266374 -0.008597553 -0.0674951 0.055729263 0.036966037 -0.06103574 -0.0647885 0.025354462 -0.08144968 -0.045577984 -0.06894927 0.090561055 0.14981045 0.03367761 -0.0650769 -0.07654393 0.08439988 0.13752331 0.20588368 0.042745367 -0.0037880847 -0.10303273 0.010626872 -0.05494289 0.0068073594 -0.2002802 -0.1579068 0.0354534 -0.10544483 -0.08224178 -0.03833407 0.10158017
sheep milk 0.08327107 -0.17264427 0.063679606 0.071683936 0.07734513 -0.1744494 0.06768055 -0.05228237 -0.13170756 0.04091412 0.067686625 -0.07892764 -0.009875674 -0.1006997 -0.0067466 0.17641288 0.05250728 0.04818389 -0.045598637 0.10386289 0.084031336 -0.0209418 -0.110884726 0.057795107 0.04911874 0.009568598 -0.065170676 -0.11876823 -0.11051747 0.021330692 0.050305013 -0.057791628 0.088448964 -0.064540625 0.07147614 0.062865905 0.068101704 -0.13215408 -0.010543273 0.10392212 0.014806048 0.0043302877 0.007586431 -0.024641808 0.11521567 0.18758518 -0.073483214 -0.06827854 -0.0880845 0.029129922 0.12230246 0.08003733 0.07077178 -0.06970315 -0.023340285 0.077918775 0.14184727 -0.033833213 -0.13012095 -0.01063298 -0.12940821 -0.21335293 0.033782467 -0.0075730947
rum -0.0018179831 -0.17097297 0.0902287 0.008149447 0.2547217 -0.1567686 -0.050734375 -0.019597605 -0.07938267 0.07208484 0.05170508 -0.099663414 0.025376463 -0.008123963 0.02500673 0.07771969 0.0025134145 0.002313346 0.07267147 0.13320777 -0.07991408 0.026451873 0.10678425 0.11085056 -0.05413684 0.020472858 0.040820826 -0.07121741 -0.08794539 -0.038410842 0.030759674 0.006147239 0.11424866 -0.10780499 -0.027406236 -0.033660054 0.026782487 -0.0043987506 0.12872925 0.02699033 -0.039755024 -0.0029260428 -0.020758752 0.04779575 0.092711225 0.08350259 -0.1807144 -0.10751192 -0.12398028 0.04376657 0.12477681 0.08318697 0.06364508 -0.08372732 -0.083851025 0.05822535 0.02227532 -0.06717937 -0.19943309 -0.022732025 -0.24133025 -0.082080394 0.023735281 0.099820614
strawberry 0.08653297 -0.18904346 0.107421786 -0.08397859 0.033725902 -0.2204471 0.08206573 -0.02990846 -0.10855852 0.11615689 0.016227413 0.025454113 -0.10360861 -0.14061591 0.013700128 0.13206328 -0.015203079 0.14638644 0.039292786 0.032908775 0.13496521 -0.03666554 0.037594665 -0.026907396 -0.001538798 0.06544784 0.0052246866 -0.10305494 -0.056494653 0.060369648 0.010967663 -0.01148877 0.043015987 -0.035269585 0.0005564982 -0.00481576 0.061170507 0.014636447 0.0065923794 0.14931004 0.025230097 -0.009266948 -0.07528258 0.08003539 0.08855388 -0.021265563 -0.054433584 -0.075081445 0.009549524 0.06352427 0.014263072 0.075462006 0.11946773 -0.091315456 -0.10558264 0.050711997 0.03708581 -0.17485677 -0.037204675 0.019167295 -0.118173115 -0.11405737 0.09079165 0.14114739
spearmint 0.045991585 -0.19107504 -0.045977388 0.0037244838 0.016682848 -0.107834466 0.07986212 -0.012850358 -0.0049948716 0.041935574 0.04820742 -0.06008597 -0.061254058 -0.11710933 0.019235136 0.0005498963 -0.022982363 -0.01607125 -0.041201063 0.053388894 -0.0058518597 0.038545433 -0.08091675 -0.08279762 -0.039259117 0.049116075 0.024703061 -0.046579786 -0.048077263 -0.057365883 -0.022572422 -0.026381247 -0.055196106 -0.08301849 -0.15248531 0.0922341 0.02743404 -0.035195798 -0.07524087 0.095917545 -0.027856087 0.025884133 -0.08175226 0.07440483 0.120072514 0.12064261 -0.101603836 0.0010606002 -0.006612737 -0.018013427 0.012179534 0.16233926 0.04434747 -0.045785174 -0.07851768 0.18978311 0.05559688 -0.2096748 -0.2493234 -0.020919377 -0.15233296 -0.17308629 0.008224922 0.0056193857
rice 0.11877761 -0.19272842 0.0547012 -0.016497029 0.04774348 -0.14776365 0.14097477 -0.12196294 -0.059974264 0.08022941 -0.013164455 -0.078323714 0.012691168 -0.048633784 -0.041419186 0.09819379 -0.024682155 0.09172848 0.024885373 0.0377395 0.052406438 0.0059713237 -0.10366917 -0.051864367 -0.043121558 0.023164904 0.11064437 -0.011619577 -0.034692924 -0.06304356 -0.10410094 0.042881895 0.024901457 0.0030401621 -0.09809828 0.04555397 -0.020890849 -0.087659605 0.052772444 0.18283115 -0.011887657 0.1265099 0.030007545 0.041937277 0.13497275 0.06862074 -0.04825695 -0.017739337 0.013270597 0.07734974 0.08229633 0.08000999 -0.010210523 -0.030441366 -0.108153574 0.18278162 0.044037003 -0.07754641 -0.22519217 -0.08073369 -0.13661371 -0.049453672 0.0635633 0.01102451
papaya 0.05415457 -0.24190854 0.0052439594 0.014428635 0.14894333 -0.1458545 0.015791783 -0.033853564 -0.09619592 0.062240463 0.012747154 -0.02812447 0.019188985 -0.066511564 0.007804371 0.17028685 0.061264407 0.045937575 0.060200263 0.053334475 0.022493284 0.027411232 0.039305203 0.010571043 0.009008321 0.030533582 -0.105644174 -0.05110307 0.04949067 0.11278641 -0.027081672 -0.03348104 0.13723859 -0.16275774 -0.09693712 -0.028061118 0.02254395 0.009991879 0.0021672372 0.13994671 -0.04054436 0.038178295 -0.013791422 0.014712911 0.06710656 0.0036860844 -0.16322783 -0.04596751 0.05561004 0.007442949 0.0061512487 0.08165817 0.038886193 -0.035990335 -0.021190202 0.11147483 0.073160805 -0.15153527 -0.1825298 -0.015958123 -0.05572266 -0.08603713 0.13635646 0.112328105
fig 0.06613619 -0.19618317 0.09355442 -0.10438429 0.04460397 -0.19982268 0.04955026 -0.07575039 -0.14022492 0.1397717 -0.034303498 -0.059098754 -0.07069705 0.0047932896 0.009199963 0.042358488 -0.045040786 -0.05993031 -0.078939274 -0.086252615 -0.048697054 -0.007523432 -0.0035518126 -0.042601686 0.05637446 -0.06223215 -0.066056006 -0.030977027 -0.030713534 0.09168615 -0.071528345 -0.02394516 0.108555906 -0.032353498 -0.08407713 0.04170792 -0.01820461 0.011443535 -0.04777853 0.11546169 0.123473346 0.036404893 -0.16124648 0.122201435 0.048077438 -0.0014327235 -0.09908993 -0.1370043 -0.049122706 0.013978309 -0.059403807 0.18186408 0.06362933 -0.11710972 -0.17535906 0.034050222 0.077562995 -0.1777387 -0.0565085 0.01993277 -0.12998906 -0.16010521 0.02762785 0.045915212
scarlet bean 0.050698478 -0.22683382 0.08552702 -0.013439598 0.17542161 -0.16886799 0.02448182 -0.108292826 -0.13700354 0.15910631 -0.11014511 0.0012486421 -0.12367184 -0.010397164 0.08178432 0.16714737 -0.026346823 0.042514514 -0.054661743 -0.015322788 0.04111978 0.029810766 -0.07218681 0.04533044 -0.006232082 -0.028324582 0.102814846 0.0006148716 -0.12685043 2.3050534e-05 0.04500959 0.069178134 0.14343332 -0.10859952 -0.08753116 -0.06965281 -0.014094289 -0.007206264 0.017131701 0.06961073 0.112763956 0.08562046 0.02982509 -0.050217785 0.012721481 0.02222424 -0.09476233 -0.06867484 -0.043665487 0.0279449 0.055330314 0.07546006 -0.009982519 0.02131512 -0.1117201 -0.047690224 0.1611941 -0.15470465 -0.1397217 0.11115281 -0.06196411 -0.11847459 0.04598408 -0.014625698
apple cider vinegar 0.14438412 -0.12649289 0.028887678 0.002066478 0.11790289 -0.13659544 0.049473748 -0.07388187 -0.053711805 0.17974833 -0.06946284 -0.10285524 -0.017808074 -0.17333578 -0.10254374 0.07572875 0.0031866147 0.04938934 -0.06749521 0.030606927 -0.060473032 0.053014632 -0.009807719 0.07993978 0.011802363 0.036818158 -0.0011836872 -0.09621777 -0.026134873 0.05857737 0.006436675 0.021329451 0.05557547 -0.0649354 -0.1258942 0.022313576 0.0659522 -0.068590045 -0.020290004 0.028941957 0.044469964 0.12460334 -0.077521704 0.043398138 0.0967045 0.03487501 -0.11720476 -0.113601 0.027651709 -0.009454699 0.046021372 0.035440184 0.07209911 -0.048592154 -0.03285079 0.06133014 0.06485335 -0.027583936 -0.1192015 -0.01929421 -0.22321361 -0.059448343 0.027012328 0.12400124
black currant 0.12484864 -0.23053981 0.04364857 0.06067157 0.07615109 -0.18774465 0.03023915 -0.04836454 -0.1841685 0.06474486 0.010548765 -0.117580265 -0.08291143 -0.05578533 0.066974 0.15642528 0.010271894 0.080562145 -0.0046887044 0.02237191 0.062973164 0.10339177 -0.010095741 0.03473043 0.009922972 0.03650795 0.042856757 -0.07981103 -0.008339631 -0.024448594 -0.018792192 -0.09006888 0.06618822 -0.036750138 -0.03933443 -0.032342523 0.10100144 -0.030335393 0.013146714 0.104207866 -0.034128856 0.01864907 -0.029042844 0.062723845 0.050930522 0.047395594 -0.016274856 -0.119372204 -0.06609497 0.03419564 0.022311186 0.17806463 0.14138639 -0.07874058 -0.07394402 0.042466838 0.024973245 -0.14375028 -0.12520814 0.08780082 -0.07105717 -0.07265043 0.025260963 -0.04706949
champagne -0.013605868 -0.12278363 0.071119785 -0.14508092 0.08468648 -0.16408595 -0.032359634 -0.02397731 -0.018656887 0.09076723 -0.06356144 -0.15235904 -0.019193515 -0.096155025 0.04407309 0.19064653 -0.034047816 0.15343209 0.092530444 0.07163926 0.04970883 -0.028659178 -0.014344797 -0.04363886 -0.003269305 0.048489306 0.00972215 -0.07171 0.009695159 -0.029675566 -0.035810746 -0.051605728 0.08790664 -0.10280324 0.054078575 0.08047562 -0.029125642 -0.048724562 0.018358918 0.077383384 0.027586853 0.091487564 -0.11111238 0.089830644 0.15572092 0.14537017 -0.11560295 -0.08799748 -0.065986626 0.008585195 0.14587328 0.07619976 0.022884743 0.047009736 -0.14309688 0.044359453 0.018407794 -0.083902605 -0.13240992 0.12573467 -0.19454446 -0.14433037 0.11808351 0.03964209
olive -0.0026904433 -0.19642705 -0.035006404 -0.07261956 0.019558603 -0.1697896 0.06786395 -0.090296745 -0.13410348 0.08919238 -0.058227513 0.00015131228 -0.0686854 -0.057198092 0.032931156 0.19187143 -0.048602536 0.09027042 -0.060037572 0.115762785 0.016735872 0.06183611 0.07381411 -0.074471205 0.10265983 0.06170065 0.03979887 -0.015665483 -0.015257409 -0.018490786 -0.020220034 -0.0915183 0.01994597 -0.11885034 -0.059569642 0.000727731 -0.00575439 -0.012350253 0.020856543 0.07965411 -0.014726207 -0.026080512 -0.08286457 -0.026790965 0.15587112 -0.00033825057 -0.09467687 -0.08993314 -0.021912634 -0.057202533 0.04896047 0.12090632 0.019196829 -0.06916693 -0.060086537 0.031702433 0.021668807 -0.04955419 -0.15364507 0.029036371 -0.19592251 -0.0778154 -0.0035279172 0.062147167
pineapple 0.023726275 -0.18983763 0.034970894 -0.08298866 0.006496159 -0.115738906 0.02562753 0.0043827663 -0.044309795 0.12899394 0.030329812 -0.004002498 -0.035104837 -0.050349895 -0.0030342054 0.12367699 -0.013431406 0.017387733 -0.016936997 0.0547824 0.019725427 0.11822317 0.010553142 0.032901235 0.09379413 0.11456969 0.20179735 -0.062419556 -0.10758126 0.087139644 0.001974732 -0.01168699 0.042233314 -0.0110707525 0.008568214 0.12543495 0.0189271 0.027291328 -0.027269712 0.12581682 0.003523882 0.076617725 -0.10040869 0.07868161 0.20983021 -0.03018143 -0.092622176 -0.03158003 -0.16244186 0.0067761983 0.12988584 0.12348084 0.090531416 0.08381223 -0.1483267 0.11840782 0.07997443 -0.1418001 -0.083355874 0.028428402 -0.22649579 -0.123993 0.031003257 0.0113291545
cherimoya 0.17825647 -0.17591482 0.013394283 -0.028353747 0.07894951 -0.10504036 -0.10302629 -0.104474485 -0.119623624 0.039926425 -0.120963015 0.008266566 0.055059493 -0.0034902187 -0.084079415 0.18170568 -0.024474118 0.17576504 -0.012374101 -0.09435187 -0.04508913 0.026458878 -0.024559012 -0.0018795335 -0.0015762697 0.037979852 0.026938504 -0.08411761 -0.0008902241 -0.066146225 0.008951657 0.054516245 -0.0017354819 -0.05541866 -0.09651738 0.0733285 0.03817391 -0.035364773 -0.06943113 0.079711005 0.016649555 0.17980225 0.031319607 -0.009802863 0.1748186 0.07944512 -0.15893346 -0.07125478 -0.04547684 0.029867839 0.035430837 -0.003565461 0.11115878 -0.041598238 -0.11801677 0.16818304 0.08858056 -0.1531148 -0.12150245 -0.013100585 -0.16156214 -0.10176186 0.027932975 -0.013091551
truffle 0.13754246 -0.12150708 0.08166711 0.09412083 0.044583924 -0.0918889 0.01054305 -0.070959605 -0.08032459 0.07020349 -0.04994214 -0.054733146 0.026189372 -0.12384437 -0.08503581 0.044506375 0.045214314 0.025444262 -0.03390382 0.008112881 0.04219423 -0.0017590035 -0.09038604 0.057584733 0.025994921 0.11024215 -0.06701991 -0.060814336 -0.12249478 -0.10113876 -0.0048904964 -0.05688185 0.061838247 -0.13882376 -0.09598619 -0.07663513 -0.009880082 -0.032545548 0.08830265 0.080119915 -0.035380706 0.12002912 -0.0663309 0.05626893 0.1295113 -0.032772243 -0.037063923 -0.1267403 -0.021753144 0.04510126 0.06395358 0.13839191 0.10927716 0.061135773 -0.054473236 0.06667746 0.034626722 -0.15289195 -0.11155579 0.09006371 -0.187058 -0.16947803 0.049451303 -0.03260259
dill 0.10416088 -0.17817338 -0.0033860756 0.0119003095 0.024382114 -0.054393232 -0.067289025 -0.12858361 -0.1890474 0.0767739 0.04130728 -0.06308181 -0.07183506 -0.0017625148 -0.007584274 0.1518087 -0.027901977 0.083758764 -0.07525324 0.07378511 0.053824533 -0.0085586365 -0.032184917 -0.0899151 0.06948924 -0.033363633 -0.026784588 -0.06328317 -0.07996123 0.046835583 -0.076817 0.07224116 0.063742414 -0.09725993 -0.09715668 -0.043584302 0.05285519 -0.13902295 -0.047550805 0.004548977 -0.012372081 0.041841578 -0.051929016 0.03375483 0.12963717 -0.057523206 -0.03797442 -0.14350782 -0.011829553 -0.017739143 0.003139542 0.12617426 0.12019493 -0.0067274873 -0.008271138 0.072509184 0.059125766 -0.099178284 -0.11924435 0.026083527 -0.16738306 -0.17335679 0.09308968 0.0238309
lemon 0.16067442 -0.1253181 -0.0017416523 0.0169826 0.03204458 -0.123659626 0.057626806 -0.06496972 -0.14393005 0.13040337 0.024971757 -0.16257629 -0.08119346 -0.16405407 -0.05305767 0.19869375 -0.057141777 0.017469877 0.009112014 0.023096064 -0.010977514 0.07957499 -0.05539179 0.13107683 -0.0006428828 0.021618012 0.0062051974 -0.08993843 -0.0149561 0.011896166 0.012190351 0.028005278 0.08014063 -0.06381513 -0.042859808 -0.047460437 -0.056511063 0.046776205 -0.03481879 0.122881465 -0.0077592474 -0.022448665 0.002543942 0.030236386 0.12922326 0.072778806 -0.055647768 -0.11929521 0.007729787 0.07185264 0.034834962 0.1289756 0.06740918 -0.09421025 -0.05106485 0.080275066 0.14610888 -0.06344674 -0.14302772 -0.024150323 -0.12947887 -0.037241835 0.006214598 0.048955254
comte cheese 0.06508189 -0.16448347 -0.010186413 -0.062845625 0.22558418 -0.15854812 0.036589522 -0.089103274 -0.10855771 0.10165099 0.035073254 -0.17857741 -0.014244981 -0.053643037 -0.035702 0.12506245 0.03946372 0.03377579 0.021031898 0.009801166 0.061851524 0.03148521 -0.02410163 0.030476747 -0.06938563 -0.010352223 0.065731645 -0.07592726 -0.037633423 -0.060182028 -0.038210575 0.049616825 0.009366914 -0.09778739 0.009679827 0.016313065 -0.060624756 0.074989 0.04220339 0.052259695 0.022462396 0.0050618984 -0.059680384 0.12277669 0.06538299 0.08474875 -0.030125255 -0.17760499 -0.08337002 0.021986332 0.14255975 0.20205478 0.043385305 -0.04587555 -0.04475351 0.026919333 0.0012047766 -0.09268865 -0.09558705 0.09274184 -0.20396729 -0.10793746 -0.0059273187 -0.012651792
deer 0.019046089 -0.15482816 -0.053578004 -0.07398052 0.11797798 -0.13987488 0.04953952 -0.08935528 -0.042688146 0.21207985 -0.08459641 0.07641866 -0.12501273 -0.065787844 -0.09981056 0.08645686 0.107350506 0.09100484 -0.038278133 0.053258456 -0.021343915 0.04328081 -0.10728614 -0.048685133 0.030637698 -0.014899461 -0.041312847 -0.013510959 -0.12092379 0.026362726 -0.029515054 -0.01227662 0.1099033 -0.050747093 -0.18543623 -0.014094439 -0.021158654 -0.06615709 -0.16245984 0.13832137 0.0764322 0.032609068 -0.010817289 -0.01684425 0.026831554 0.02002267 -0.022862347 -0.08829779 0.032643057 0.21254714 0.11565033 0.16561647 0.0016509029 -0.10586957 -0.013257373 -0.059315518 0.15908957 -0.1912006 -0.08810172 0.023182591 -0.13680948 -0.14177668 0.11884399 0.036218684
sweet orange 0.19600116 -0.14752616 0.038389277 -0.05739195 0.11759933 -0.12994179 -0.017544867 -0.04285159 -0.13786124 0.13403443 -0.019574685 -0.025796639 -0.14997862 -0.04055837 -0.011681602 0.21133934 -0.035603244 0.060014006 -0.06316815 0.11746608 -0.11243746 -0.048754837 -0.008494963 0.037638046 0.02464051 0.028529739 -0.007941771 -0.07093838 -0.033064768 0.026288988 0.07569039 -0.09964999 0.08622554 -0.097616896 -0.03918525 0.0019412055 0.048896376 -0.054872718 -0.0013256739 0.14710261 0.027077407 0.03284828 0.0142074255 0.007861982 0.1262618 0.10103775 -0.027943881 -0.044461094 -0.055930134 0.014073303 -0.033382013 0.08388708 0.076284304 -0.024530394 -0.10951537 -0.024617055 0.01300794 -0.086691745 -0.10980984 0.03188491 -0.18568352 -0.07124958 0.011992908 0.027679624
green bell pepper 0.05703883 -0.15536977 0.016218292 -0.0101144295 -0.0050077825 -0.30467802 -0.04579082 -0.06015314 -0.039400905 0.101905406 -0.10902327 -0.121508785 0.0373338 -0.0105675375 -0.08077259 0.020062447 0.016912302 0.13882294 -0.028544715 0.06454407 -0.05123002 0.1005203 0.0017130037 -0.025036229 -0.029706549 0.019278144 0.042181995 -0.026392719 0.0046850056 -0.05105189 0.046742573 0.0054295612 0.089721285 -0.21430787 -0.103778236 0.0003451351 0.03099523 0.007406002 -0.013683038 0.09821062 0.06852043 0.0467696 -0.09206065 0.08340519 0.07566561 -0.020448033 0.0066930307 0.018068876 -0.13684894 0.05590089 0.06380413 0.10686999 0.05528899 -0.0074095074 -0.12061732 0.028119696 0.07193776 -0.20792265 -0.18706676 0.017054047 -0.12901019 -0.09059906 -0.013926426 0.0068213115
camembert cheese 0.028052684 -0.15020786 0.08285174 0.079437 0.19779788 -0.14342026 0.044084825 -0.040497597 -0.028169718 0.09916434 0.04071971 -0.08130946 -0.0984652 -0.06888092 -0.013925166 0.13166484 0.0141184665 0.0383263 0.045046266 0.07385524 0.12978683 0.04600489 -0.03145061 -0.037374325 -0.014992782 0.05222432 0.014194579 -0.13218641 -0.09450311 -0.05170501 -0.07495678 -0.07125081 0.090993926 -0.10616673 -0.0585132 0.074345805 -0.014415943 0.01502316 0.017958893 0.11955119 0.11846512 0.0605659 -0.07604346 -0.04749069 0.0040431228 0.15961108 -0.1156679 -0.050551396 0.07838514 0.06773252 0.086119324 0.09940129 0.076815344 0.030202653 -0.088246934 0.05258184 0.06677009 -0.0682032 -0.13497834 -0.014289004 -0.19854142 -0.07732364 0.09537903 0.051999282
peppermint 0.14133546 -0.2577532 0.003214793 -0.023760587 0.14253756 0.03737369 0.016411383 -0.16948448 -0.024712652 0.10455015 -0.074785955 0.0354916 -0.10301293 0.006316353 -0.021527167 0.12924242 -0.039610524 -0.052366104 0.06309593 0.004464844 -0.049115147 -0.024283113 0.05326942 0.026558207 0.014112858 0.12667075 -0.089956425 -0.06892467 -0.094216414 -0.013193632 -0.08273521 -0.07316845 0.13322014 -0.18888715 0.024431184 -0.0040380233 0.0076344633 0.0137876 0.012140674 0.04547003 0.025638549 0.038673066 -0.027189739 0.11208996 0.050998036 -0.021613913 -0.15639234 -0.18572357 -0.0044226847 0.045308307 0.08930755 0.064957865 0.02564824 -0.031334832 -0.088040225 -0.0037291604 0.041084 -0.14868934 -0.07927433 -0.03197522 -0.2086835 -0.07878089 0.025202727 0.04127712
pear 0.084415086 -0.15597925 0.16689026 -0.013544674 0.05346529 -0.14926855 0.01426044 -0.119695805 -0.17561005 0.12647688 -0.016483776 -0.009352876 0.058642272 -0.1387202 -0.074029915 0.12224991 0.079574935 0.002135687 -0.021242097 0.052473243 -0.041951302 0.014169539 -0.029667215 0.013263822 0.032163892 0.056910392 0.060722265 -0.0059805843 -0.06758015 0.023299584 0.02499143 -0.008415369 0.0015263954 -0.03275989 -0.022342794 0.11889683 0.033860695 -0.023052035 0.030439874 0.15949422 0.025010958 0.08575841 -0.06301507 -0.00038726785 0.1177677 -0.0040136944 -0.06593586 -0.079266086 -0.1310604 -0.07717694 0.02496982 0.15275529 0.09196894 -0.034636933 0.010328713 0.026954712 0.038328465 -0.016602503 -0.18553197 0.07210637 -0.15809472 -0.10986159 -0.041836698 0.03610323
pummelo 0.07453323 -0.07523129 0.06948912 0.023441423 0.16532783 -0.23226754 -0.045028843 -0.05826969 -0.1023066 0.14734745 -0.04183759 -0.15387538 -0.058750685 -0.022090819 -0.010594677 0.092816085 0.039893705 0.132017 0.017852804 0.08007842 -0.04390427 0.076890655 0.14330353 -0.04243499 -0.01920941 0.055473074 0.041656308 -0.07115204 -0.08744763 0.055035595 0.04691277 -0.027296491 -0.023446672 -0.12616055 -0.019035004 -0.054002892 0.09418865 -0.12407252 -0.0132453 0.076541044 0.019949503 0.0028793574 -0.05119511 0.024911264 0.079816975 -0.025106981 -0.011844761 -0.096171916 -0.051196713 -0.082932845 0.028724711 0.058948167 0.034283325 0.011325646 -0.09189825 0.035503365 0.13243268 -0.06904909 -0.162665 0.0015400865 -0.22223051 -0.08962524 0.05459432 0.028284406
red bell pepper 0.09234052 -0.018831804 0.096669875 -0.021293394 -0.020423278 -0.17252623 0.0681054 -0.14513037 -0.101923294 0.19522747 -0.04278218 -0.07344913 -0.020591654 -0.18227956 -0.02718609 0.14597115 -0.037941605 0.0752089 -0.16449794 -0.05556752 0.0036208574 0.022369372 0.0097146705 -0.01630908 0.004563655 -0.0125108715 0.0829836 -0.019024568 -0.08279666 -0.01387998 0.006113271 -0.052994076 0.08582415 -0.013565513 -0.0002792429 -0.03471472 -0.04458159 -0.019842183 0.02491739 0.075921394 0.07423877 0.11468941 -0.060023252 0.055233665 0.15617476 -0.0002170841 -0.023880426 -0.21288234 -0.1257841 0.11488092 -0.03922498 0.13210906 0.049126823 -0.0013858661 -0.03129777 0.07398849 0.07247148 -0.14959975 -0.09220578 -0.066360995 -0.23046282 -0.013548042 0.090490416 0.023364931
capers 0.16207914 -0.24232756 -0.027821165 0.025285507 0.114368044 -0.13968518 -0.025361644 -0.19773686 -0.07649252 0.16011702 -0.0050846417 0.02435792 -0.020893894 -0.059747 0.015067895 0.04983552 0.10502351 0.07109773 -0.021892218 0.08224744 0.10082166 0.09647524 -0.08080818 0.044555772 -0.047800872 0.04165897 0.018596685 0.050620567 -0.05463176 -0.009997065 -0.08170857 -0.05306848 0.051299267 0.009634648 0.0006881664 0.039675932 0.0699706 -0.0039086766 -0.0030551692 0.06342717 0.00910951 0.070863724 0.008624989 0.037137598 0.10793114 0.03600388 -0.052772794 -0.058043484 0.04565389 -0.012668141 0.052281607 0.10959201 0.049637683 -0.058046944 -0.02439639 -0.0026987803 0.034706138 -0.17446369 -0.1305177 0.018641349 -0.10548406 -0.2345672 0.038421467 0.16272134
sparkling wine 0.027537966 -0.14436851 0.091376185 0.12628026 0.006376294 -0.25947702 0.043697353 -0.030465277 -0.07121045 0.1908782 -0.035337232 -0.06781398 -0.07172462 0.07077504 0.009036204 0.16733943 0.089783736 -0.0053539616 0.050358154 -0.026812831 -0.016966693 0.08010951 -0.08065644 -0.08629006 -0.09374806 -0.0050339624 0.026131947 -0.11448697 -0.14773259 -0.0239771 -0.061891105 -0.05176857 0.06750327 -0.17472818 0.012109204 0.041782707 -0.0022735987 -0.017445697 0.14708357 0.07213565 -0.011220459 0.0027250536 -0.086052306 0.13372 0.05027969 0.046176393 -0.116441995 -0.10639852 -0.017332356 0.03830424 0.09164838 0.13011 0.09996312 0.044794854 0.018676968 0.0064485315 -0.021743238 -0.11953853 -0.09504947 0.0112754665 -0.14042693 -0.16260464 0.021113709 0.13906436
atlantic halibut 0.12924917 -0.18864864 0.0667058 0.013572796 0.027764192 -0.057929758 0.08710668 -0.04363631 -0.08002326 -0.017436074 -0.044469222 -0.07572329 -0.02133659 -0.09215001 -0.029216379 0.057030402 -0.016356537 0.10173171 -0.086406454 0.029099423 0.050395723 0.0361619 -0.06675868 0.02724074 0.005553734 -0.0251414 -0.05152155 -0.017884754 -0.05563046 -0.023104928 -0.0015095036 0.021967871 0.15534179 -0.120124824 -0.07405169 0.012548596 0.04251837 -0.034233745 -0.015878703 0.08987631 0.008257129 0.007064217 -0.06102859 0.002713222 0.0024473811 0.005265617 -0.09473172 -0.19404085 0.0056658806 0.14601399 0.063112386 0.18717828 0.0190001 0.015974734 0.0063293087 0.08801347 0.11463666 -0.16622841 -0.16233824 0.058728978 -0.18348202 -0.0577397 0.04738428 0.06977241
lemon peel oil 0.09579839 -0.22072113 0.08957706 0.020357162 0.13041636 -0.24651353 -0.0014420004 -0.10983539 -0.09584099 0.002386691 -0.05783187 -0.0092143845 -0.046815317 -0.082295515 0.046185132 0.08705511 0.026186667 -0.006865527 -0.07340196 0.045424648 0.024597919 0.03058798 0.044306688 -0.08752487 0.020939818 0.04389359 -0.040623486 0.020626178 0.015608603 0.05280151 0.08542001 -0.060637258 0.1068108 -0.1000783 -0.034026448 0.045909975 0.0071953875 0.05994414 0.014712591 0.053323794 0.03240858 -0.015851246 -0.13918024 0.12237778 0.077391736 0.017241824 0.07471451 -0.13772583 0.012343237 -0.15608446 0.13159189 0.12185415 0.12637891 0.050742622 -0.044163074 0.0994113 0.019670337 -0.07017626 -0.19789596 0.019863334 -0.119006865 -0.050106626 0.022360666 -0.032223027
cinnamon 0.1089439 -0.19639029 0.053105984 0.050648913 0.0659072 -0.09938394 0.037303653 -0.09130176 -0.097177655 0.13484502 0.056299344 -0.20319894 -0.09924319 -0.031106234 -0.060982764 0.10338029 0.054790355 -0.07057941 0.005159788 0.093680896 0.013129515 -0.108485244 0.012572667 -0.047009178 -0.038938385 0.07327842 -0.04962201 0.045865584 -0.04339859 -0.063751094 0.003211663 -0.08295221 0.06549818 -0.13473728 -0.02488464 -0.049952094 0.012567728 -0.10941655 -0.11518859 0.05578383 0.009090921 -0.05891514 -0.06778103 0.08012768 0.12525456 0.0607278 -0.024890048 -0.09145911 -0.111415446 -0.060102493 0.0484108 0.1513507 -0.024365133 0.03826569 0.031977188 0.048219755 0.07839715 -0.046877358 -0.16989702 -0.0049313116 -0.24241248 -0.01951426 -0.023959806 0.1298863
grapefruit 0.058517195 -0.15626006 0.0044725197 -0.06094587 0.15038113 -0.1525977 0.04526596 -0.017595354 -0.13638774 0.05620633 -0.03511606 0.021811053 -0.10472133 -0.097556286 -0.09807738 0.19352229 -0.000828327 -0.063362606 0.021118198 0.07882592 0.024195638 -0.092580326 -0.034458883 0.021785527 0.00471774 -0.008934739 -0.0029064629 -0.036616288 -0.08097545 0.08466604 0.028511114 0.009450115 0.08258539 -0.08610122 -0.14613616 0.02908358 0.09712422 -0.041485682 0.067170165 -0.00993257 -0.13965063 -0.0045332075 -0.12419294 0.091154434 0.10808258 0.050404876 -0.026906932 -0.09518422 0.02657603 0.051247176 0.12549584 -0.04321513 0.077456005 0.015197691 0.01845795 0.05969582 0.07788637 -0.00066966633 -0.21246058 0.021370837 -0.2933563 0.020330735 0.080698006 0.09907839
bilberry 0.14084694 -0.14965738 0.005883051 0.0031672872 0.082109116 -0.15366563 0.051636167 -0.025361402 -0.009914878 0.017444681 -0.053302936 -0.06644168 -0.07798578 -0.07052374 -0.01441918 0.113582715 -0.0008792244 0.08355931 0.09596062 0.050273325 -0.042696275 0.062075555 0.008872994 0.014811439 0.027891835 0.0038089054 -0.04528559 -0.113807715 -0.14615121 -0.00043648883 -0.08610473 0.022416726 0.09236715 -0.05090689 -0.10493624 -0.0010758674 -0.054211777 -0.06297763 -0.014458587 0.051423255 -0.048806466 0.080093615 0.040365774 0.14895949 0.11080779 -0.020019967 -0.12077246 -0.092528656 -0.05029678 0.05234151 0.03588813 0.18445688 0.11751687 -0.036239784 -0.1254714 -0.0056932913 -0.031195339 -0.1515115 -0.17925155 0.06615338 -0.15620634 -0.030621123 0.11403997 0.002592564
asparagus 0.048666224 -0.18801557 0.041366708 -0.040451348 0.021357674 -0.11884 0.044737484 -0.043530628 -0.08985497 0.035129607 -0.05263562 -0.049904026 -0.09143791 -0.07041648 -0.08878199 0.062850356 -0.040681116 -0.04215547 0.014166469 0.02465958 0.0820004 0.06916411 -0.0897491 0.122543946 0.079387225 0.0049279607 -0.032476857 -0.043128178 -0.07011774 0.08766041 -0.0405827 0.049639624 0.08450963 -0.08981463 -0.0014084178 0.059665862 0.0311922 -0.0080187945 0.034542132 0.14470187 0.06647375 0.00416299 0.026599696 0.060257416 0.11080475 -0.036972407 -0.052932683 -0.07778985 -0.13087639 -0.029946854 -0.0569935 0.18988746 0.07868524 0.014412918 -0.09285239 0.1262333 0.18885271 -0.15311275 -0.24498814 0.029449945 -0.099572055 -0.047786195 0.049119268 0.08879078
carrot 0.08868834 -0.15986456 0.038775302 -0.080439925 -0.048705887 -0.10648175 -0.021397736 -0.07581655 -0.14844468 0.08730681 0.13952023 -0.05781278 0.015372571 -0.03151088 -0.07472456 0.1758213 0.022861851 -0.01371946 0.069699205 0.0037462164 -0.024277547 0.01975684 -0.119914055 -0.009322344 0.003441129 0.10752711 -0.06830849 -0.04018832 -0.0037030808 0.014744674 -0.0043260707 0.02833967 0.13893205 -0.07852242 -0.08673243 -0.107707486 0.016786855 0.037408773 -0.046220884 0.10182772 0.09494159 0.051048175 -0.024525847 0.057970826 0.08357437 0.13249479 -0.08472262 -0.118431665 0.0011862676 -0.0044439207 0.0025128855 0.04735841 0.08837503 0.10098504 -0.031341188 0.027129203 0.085850425 -0.16573063 -0.12322739 -0.0148271285 -0.24463648 -0.15290035 -0.022885678 0.100098014
pepper (spice) 0.10721864 -0.18338217 0.091868676 0.013591068 0.026984466 -0.12613828 0.003930411 -0.073611096 -0.12728855 0.05775034 0.005818904 -0.109869845 -0.1386472 -0.07586998 -0.01957699 0.11905936 -0.08525143 -0.004647495 -0.050754312 0.094962046 0.054425783 0.07601924 -0.07101167 0.019247282 0.020006055 -0.023460926 -0.032683924 0.04167799 -0.045869198 -0.017624833 -0.03173758 -0.06470709 -0.016064884 -0.12081098 -0.083238795 0.12300692 -0.018390626 -0.06384516 0.04809565 0.004686042 0.095582634 0.02449078 -0.034828853 0.030410577 0.061712876 0.14354287 -0.14436994 -0.048169743 0.036551796 0.026439702 0.061893567 0.13894987 0.11265372 0.025935635 -0.029395545 0.08096211 -0.021655558 -0.1417789 -0.084341414 0.074653395 -0.19922423 -0.12679724 0.049281575 0.052171454
allspice 0.134911 -0.08245396 -0.0075700446 -0.06277572 0.11052864 -0.1543678 -0.045179185 -0.03761344 -0.057188306 0.04599179 0.020219237 0.0178038 -0.09978133 -0.030401995 -0.026100457 0.03193555 -0.042050757 0.08346567 -0.00568635 -0.055635378 0.02128056 0.066057615 -0.015065249 0.0313556 0.03763442 -0.02150891 -0.031821407 -0.033308133 -0.077945314 -0.016541928 -0.011124512 -0.02821198 0.10851281 -0.1352692 -0.1183251 0.03530742 0.14140224 -0.04544116 -0.004095153 0.063594 -0.056925755 -0.04789364 -0.033096932 0.015918082 0.17339377 0.10434749 -0.035206266 -0.16610202 0.023684217 -0.0056279153 0.06741135 0.081399776 0.060407422 0.016002743 -0.14869913 0.0836464 0.093300246 -0.17468289 -0.1521892 -0.014806016 -0.18001278 -0.14518279 0.08368906 -0.030315928
narrowleaf cattail 0.0774453 -0.15607141 0.068003476 -0.09748122 0.14843369 -0.1399883 -0.038378123 -0.056953214 -0.067545414 0.08754913 0.027715975 -0.018130502 -0.026490575 -0.1353731 0.004708653 0.089790076 0.0024329459 -0.07575936 0.0071676704 0.04036187 -0.0066420124 0.024803944 -0.052885626 -0.06426592 -0.006293028 -0.027206333 -0.019332763 0.029764451 -0.056116495 -0.012339032 -0.08628314 0.0014431842 0.041559987 -0.059217025 -0.11659441 0.04338955 -0.014203383 0.015012454 -0.09348914 0.076053545 -0.04952944 0.015537873 -0.0732935 -0.08831295 0.13128321 0.028202385 -0.035766207 -0.10291078 0.03393914 -0.0016775553 0.06889736 0.03412225 -0.033783022 -0.049378175 -0.104888394 0.08087922 -0.016282463 -0.14438798 -0.18737842 -0.009418897 -0.26987666 -0.142202 0.023346558 -0.02806319
ham 0.12308788 -0.13829076 0.026350785 -0.040209804 -0.023954257 -0.098517835 0.03144879 -0.10014501 -0.13630494 0.1082361 -0.0991964 -0.08477483 -0.09374611 0.019717628 -0.14044529 0.11042846 -0.029478315 0.0024882825 -0.053367004 0.07782205 0.023995677 0.044721466 -0.026365507 0.032497033 -0.029470216 0.12184171 0.06335262 0.022250786 -0.1172856 -0.09148325 -0.030883089 0.0091809295 0.15293631 -0.100282565 -0.13490175 0.10862772 -0.056554668 -0.033195313 0.020199241 0.006695923 0.021235792 0.0036106699 -0.015139669 -0.043389376 0.03408329 0.022598742 -0.0741391 -0.070967376 -0.013970294 0.07412379 0.067707844 0.050931912 -0.005319151 0.0807395 -0.15033062 0.16235916 0.10151377 -0.10387546 -0.26146156 -0.08898877 -0.06715964 -0.08706972 0.095205724 0.2030872
parsley 0.08311835 -0.15091743 0.056338966 -0.07827588 0.046428423 -0.13411824 0.10199409 -0.13826403 -0.115136 0.09338457 0.08652889 -0.039703563 -0.025751654 0.04519589 -0.1532476 0.113391526 -0.0037318456 0.011736037 -0.045428384 0.021799486 0.050292525 0.041820213 -0.024448493 -0.09770941 0.09862082 0.023239287 -0.0919751 -0.017946111 -0.10033203 -0.028689494 0.048065454 -0.049066026 0.04580334 -0.12863053 -0.06516893 -0.046667688 -0.04901753 0.09215463 0.07980504 0.09175264 0.092691064 -0.0089776665 -0.06500977 -0.015772965 0.15603635 -0.0074719517 -0.03433076 -0.14302087 -0.016743818 0.076010495 0.05189278 0.09001175 0.1375096 0.044075716 0.021027869 0.11042509 0.06510881 -0.19415727 -0.10695166 0.027885433 -0.1293568 -0.14733458 0.0068408865 -0.04992477
barley 0.17640433 -0.181132 0.09324553 0.056877196 0.08768342 -0.13814798 0.13306226 -0.13703333 -0.10678928 0.09166862 0.1289707 0.0044313953 -0.029031912 -0.07014871 -0.025120838 0.12330951 -0.032161344 0.061138295 -0.06653129 0.043359533 0.055444986 -0.08887584 0.008664578 0.015770292 0.016501348 0.09994366 0.022703445 -0.029827846 0.07885519 0.0051611937 -0.01752957 -0.04361571 0.017171148 -0.060067147 -0.12298328 0.0365437 0.016499223 -0.061015636 -0.048821125 0.07362275 -0.040351104 0.07545285 0.047178544 0.004455751 0.04612246 0.048603926 0.08602431 -0.1412503 -0.042864628 -0.020853097 0.1477721 0.041029748 0.02825228 -0.028542712 -0.027036678 -0.030861642 0.082046 -0.12021708 -0.24512249 0.177332 -0.10709811 -0.10298259 0.09312685 -0.05639159
rosemary 0.14404091 -0.16954319 0.071603015 -0.050742965 0.018753637 -0.10032093 -0.0380116 -0.07859214 -0.121302 0.12087729 0.03252828 -0.11540198 -0.01821311 -0.02298034 0.0048359022 0.10697757 0.02106392 0.154102 -0.041307416 0.046347067 -0.014111079 0.018203218 0.07967299 0.035522338 -0.05601508 0.07408219 -0.068461664 -0.073599085 -0.08774758 0.067922786 -0.0016965264 -0.020374455 -0.025369154 -0.12311325 0.0035331913 0.04779684 0.086822726 -0.01382627 -0.06624717 0.123040825 0.02621745 0.013203884 -0.0375343 0.120696425 0.09316248 0.013608571 -0.054811627 -0.11543256 -0.009003565 -0.013721359 0.050835356 0.024103973 0.08148181 -0.027830578 0.04242445 0.072579354 0.14758125 -0.15571886 -0.12253946 -0.002568021 -0.22290243 -0.0974888 0.06764393 -0.019363292
blackberry 0.09185918 -0.18541011 -0.026660874 -0.04877973 0.17454514 -0.123551354 0.011697802 -0.08103479 -0.17703432 0.08556561 0.012085325 -0.07113671 -0.030042514 0.07787958 -0.026669323 0.11731045 -0.033184938 0.03136363 0.00403062 -0.02675988 0.008985358 0.0691864 -0.10975273 0.0490894 -0.08182328 0.12256315 0.0018649962 -0.10313036 -0.012753213 0.026477106 -0.06891678 0.048377506 -0.01042644 -0.08682883 0.020001478 0.04018274 0.06291835 -0.031890675 -0.04086307 0.028926175 -0.12127429 -0.03249807 -0.082800396 0.08740734 0.12232946 0.13526529 -0.043806426 -0.17567584 -0.10302504 -0.024065768 0.036641583 0.02170475 0.15463674 -0.022511762 -0.0768495 0.011724257 0.07909466 -0.18291482 -0.10445471 0.06536896 -0.14750792 -0.19187999 0.161166 0.023772055
alfalfa 0.0561437 -0.15883797 0.08760653 0.061975554 0.09116023 -0.08077009 0.0039583906 -0.060572825 -0.08677884 0.1406445 0.061280157 -0.08417673 -0.11159322 -0.035815198 -0.04909498 0.19486877 -0.0652801 0.0028364558 -0.0025319299 0.09938908 -0.021728197 -0.0019643772 0.02777553 0.014242386 0.008528786 0.04920272 0.0066550043 0.043465517 -0.06330496 -0.061206583 -0.03820661 0.0020810994 -0.052454807 -0.049631104 -0.13060668 -0.0064346767 0.048815157 -0.08108841 0.02355746 0.064111575 0.047111228 0.06577015 -0.0075098923 0.028611511 0.16912846 0.055910733 -0.08151207 -0.15141584 0.09774956 -0.051652584 0.046455856 0.07628483 0.035360947 0.068250455 -0.031039713 0.16144782 0.013181141 -0.16085343 -0.19949895 -0.012014376 -0.11379055 -0.070503905 0.028769663 -0.044194557
sago palm 0.02779385 -0.1802722 0.012216372 -0.050856635 0.106879614 -0.110743806 0.061136328 -0.09830313 -0.09767425 0.10917218 0.02183671 0.09231412 0.048357535 -0.053622607 -0.008019484 0.13393605 0.08360153 0.073236406 -0.1044028 0.033233576 0.022848094 0.0638796 0.005085771 -0.05609613 0.0039491844 0.0618615 0.092662014 -0.01850192 0.029713998 -0.006931535 -0.050088145 0.012843503 0.10963653 -0.09139636 -0.06920822 0.004852215 0.0273509 -0.055369772 -0.045700245 0.10903832 0.051808823 0.044085633 0.031975344 -0.07441838 0.057243906 0.032084048 -0.03907157 -0.073900335 -0.07265497 0.06405924 -0.054691274 0.20802122 -0.022494167 -0.06951667 -0.10752679 0.07041966 0.08997756 -0.15171428 -0.23621577 0.014622585 -0.12472704 -0.12115801 0.024174418 0.06302583
pheasant 0.19728188 -0.17545894 -0.011675384 -0.08760298 0.123797506 -0.21862298 -0.03172211 -0.16521303 -0.12201714 0.08437653 -0.14587547 0.05806761 -0.011369461 0.0017839905 -0.021500029 0.16466303 -0.0037955819 0.046024233 0.0469478 0.008507436 0.101538986 0.085791714 0.06356981 -0.041339707 0.0017573924 0.027550519 0.07907811 2.0519989e-05 -0.13635382 0.035760686 0.0018071037 0.12617198 0.08988688 -0.026632134 -0.08792117 -0.035752635 0.017032927 -0.07800493 -0.041887753 0.123194 0.11453065 0.07673791 -0.05866652 0.10537036 0.07644464 0.052356508 -0.06334195 0.026966086 -0.03372163 0.07442082 0.0691367 0.060448743 -0.074682444 -0.04371796 -0.04556943 0.0005837617 -0.01477585 -0.10555183 -0.19237973 0.008289925 -0.16908371 -0.068413064 0.065606244 0.06045402
quail 0.12396178 -0.1838515 -0.0084829675 0.03294063 0.08749338 -0.14528586 0.046382926 -0.18228085 -0.031362504 0.15263417 -0.045522068 0.048084747 0.07058364 -0.13492973 0.01432937 0.113577254 -0.004666622 0.032081388 -0.08895543 0.1467709 -0.027381169 0.05834098 -0.052756745 0.109732494 0.013245247 -0.08672445 0.020688092 0.023681512 -0.050641485 -0.06187598 -0.019866234 -0.017357208 0.112560526 -0.06847989 -0.00949612 -0.0005339029 0.0092185745 0.00084992923 -0.061817754 0.13707134 -0.065193795 0.014821076 0.020738125 0.01711936 0.053394746 0.0634348 -0.018388769 0.04722018 -0.0011422822 0.07881236 0.13606724 0.06156558 0.027680654 -0.03777777 -0.049613457 0.10535472 0.015880395 -0.24875297 -0.13982537 0.14881015 -0.11196135 -0.23018128 0.09490739 0.09725261
lean fish 0.12619905 -0.21511087 -4.4057224e-06 0.10479841 0.0821129 -0.23970519 0.015326934 -0.0630498 -0.09542056 0.15321808 -0.05095262 -0.062113177 -0.14494325 -0.11730336 -0.04573485 0.19167423 0.03283857 0.10476042 0.054918505 0.046290994 -0.025009872 0.051571712 -0.02434291 0.042639475 0.06602477 0.089213066 -0.118172154 -0.05033871 -0.033508256 0.054088987 -0.017858218 0.042047847 -0.07098119 -0.058090504 -0.048515 0.026721297 0.023116786 0.012132169 0.011135869 0.03410837 0.01268724 -0.09908188 -0.06962557 -0.031838425 0.060149007 0.025941325 -0.08437187 -0.059826367 -0.04439299 -0.031586617 0.035307396 0.05848838 0.015912272 -0.00543662 -0.06354181 0.043479186 0.023731489 -0.028119693 -0.18396436 -0.11887645 -0.17497647 -0.11046294 -0.03422244 0.097622596
nutmeg 0.05819734 -0.20393057 0.101408005 0.023357555 0.03576417 -0.20665452 0.06565549 -0.00550913 -0.07982395 0.16151555 0.012315282 -0.06202484 -0.017095856 -0.087199174 -0.09785362 0.13173337 -0.0020966306 0.066292554 0.006236993 0.019921498 -0.023671767 0.0004545278 -0.068738915 0.04888351 0.069405735 -0.028183054 -0.080270484 -0.115656205 -0.044830915 -0.02242624 0.062186025 0.0033089283 0.02054421 -0.21708177 -0.08823352 -0.066524096 0.14730717 -0.03786925 0.021265438 0.16311741 0.09944296 0.020105794 -0.02621621 0.12296615 0.08944299 0.036069676 -0.06409453 -0.040577594 0.09720248 -0.08119128 -0.024080386 0.020485507 0.06849637 -0.015423955 -0.06503676 0.056826964 0.013255599 -0.044891328 -0.18516934 0.04958323 -0.14555784 -0.120078355 -0.09165219 -0.007666289
emmental cheese -0.0082566235 -0.23809536 0.08402174 -0.04116897 0.06451348 -0.07484644 -0.1647166 -0.031368475 -0.1267186 0.072804116 -0.05607733 -0.10159982 0.0038260133 -0.2267398 -0.050942782 0.14485458 0.12837137 0.09615364 0.07793368 0.036010344 0.015374942 0.0034191837 0.00910925 -0.049130086 0.010813681 0.10573906 -0.014444519 -0.029591095 -0.1841893 -0.083990455 -0.06327247 0.043463234 0.053001832 0.020324709 -0.09135781 -0.0645852 0.04347522 -0.05771799 0.02355633 -0.0016630993 -0.026511673 -0.037116542 0.012744136 0.042366937 0.04921715 0.061218146 -0.0644845 -0.2151867 -0.028706774 0.11072427 0.06962698 0.1368922 0.025392473 0.0075350334 -0.033286043 0.04538289 0.117119744 -0.106622 -0.14963716 -0.033418108 -0.19131933 -0.1652688 0.004500536 -0.022169838
lime 0.14751947 -0.15802361 0.101405814 0.02552419 0.08448561 -0.1293213 0.046249736 -0.106163286 -0.13486171 0.18208 0.06432818 0.06297946 0.049190916 -0.15837982 -0.01246731 0.18887252 -0.016380817 0.06051112 -0.036523383 -0.00945861 0.10001464 -0.09679953 0.10646318 -0.026465045 -0.0073733465 0.04065694 -0.059871897 -0.030630555 0.04136294 0.0021791914 -0.0416744 -0.0020826585 0.04347055 -0.019540034 -0.12265455 -0.00044998605 0.09542311 -0.0555627 0.032849006 -0.020755839 0.03252789 0.12012744 -0.07330539 0.04994932 0.14044592 -0.043748766 -0.052377827 -0.067727596 -0.06911049 0.13502896 -0.04809396 0.12117656 0.0041962406 0.035857752 -0.049093395 0.20630981 0.015157957 -0.045580298 -0.17455603 -0.0061334586 -0.15914066 -0.059439935 0.017321805 0.005303803
north pacific giant octopus 0.12533294 -0.18860587 0.019724488 0.008334329 0.10320993 -0.14881696 0.13512032 -0.07890656 -0.05421083 0.10933105 -0.011061011 -0.043956466 -0.045367274 -0.10115426 -0.15396345 0.11416454 -0.020528583 0.014965922 0.057990618 0.1131547 0.054495983 -0.052625168 -0.0049790675 -0.03403622 0.16590327 -0.026995374 -0.07432714 -0.05337599 -0.037847947 0.066646285 -0.0027604953 -0.07800116 0.049820498 -0.08200128 -0.017264863 -0.0008257542 0.008683702 0.03611466 -0.024698652 -0.019694116 0.0076090735 -0.048010368 -0.053263914 0.10986829 0.14907989 0.046311207 0.045554552 -0.08805967 -0.048371516 0.06877874 0.0028802026 0.030096242 0.0026938329 0.07435485 -0.061342206 0.14850783 0.04985481 -0.09782606 -0.21462376 0.014748643 -0.17855857 -0.140311 -0.05155267 0.05219775
gooseberry 0.15921776 -0.11313707 0.005027643 -0.072406866 0.03722281 -0.10684064 0.06049541 -0.026026076 -0.088332064 0.04222741 -0.105035745 0.042995952 -0.032743495 -0.009120504 -0.042323265 0.093187876 0.03492147 0.010723838 -0.043517206 0.016657569 0.013887212 0.06069161 -0.087955564 -0.06873687 -0.036688853 -0.07084261 -0.018897062 -0.0028244487 -0.10444915 -0.06450261 -0.08020006 -0.07728569 -0.020592421 -0.17014013 -0.10283865 0.03407892 -0.023165004 -0.13350898 -0.05476106 0.07567868 -0.038925096 0.0006358299 -0.088511966 0.0396626 0.15328044 0.024448942 -0.014738029 -0.13618012 -0.11843389 0.032225166 0.05864 0.111915626 0.14870991 -0.061742872 -0.08845064 0.00025504787 0.077133276 -0.12268418 -0.19264358 0.03605664 -0.18541239 -0.079428 -0.109406166 0.067421325
tamarind 0.1066983 -0.11757403 0.07200263 -0.021123301 0.11537709 -0.18998933 0.062114682 -0.070138365 -0.08407601 0.08428047 0.0026717968 0.021405522 -0.065908745 -0.06438911 -0.029419806 0.14712779 -0.0758377 0.0063629197 0.055577047 0.023988169 0.1096021 0.065247335 0.0043090913 0.093348995 -0.00039583872 0.058760624 0.005977093 -0.021810122 -0.06392014 -0.07237505 0.034991574 -0.015050181 0.122953445 -0.07667586 -0.043350965 0.040103782 0.04178965 -0.03771987 -0.0046809684 0.093752004 -0.039785203 -0.0054454524 -0.02728086 0.050253835 0.15283246 0.06856917 -0.053467605 -0.14394026 0.019922229 -0.05191512 -0.031245552 0.04801366 0.054884046 -0.031788364 0.019103114 0.017443301 0.06535503 -0.017240174 -0.18988654 0.074029125 -0.22375801 -0.11800568 -0.06953909 0.041513853
orange bell pepper 0.051164262 -0.17621359 0.023104459 -0.046374876 0.090904996 -0.10749474 0.015770948 -0.16445464 -0.18101914 0.07660172 0.011830396 -0.017266724 -0.07069195 -0.036147103 -0.05607089 0.12650408 -0.096268356 0.018735878 -0.10505021 0.0135750305 -0.03740867 0.035486177 -0.08362775 0.01335466 0.028808719 0.075068936 -0.023794433 0.013170908 -0.068812415 -0.020017775 -0.08735281 -0.015586032 0.07572851 -0.04577911 -0.075483516 0.061193608 -0.027468536 -0.04006337 0.03394482 0.02817525 -0.09834528 -0.0060887053 0.07702286 0.01377951 -0.010771336 0.09520386 -0.15906274 -0.103485785 -0.0017355069 0.0356487 0.06849045 0.050256222 -0.0015866181 0.011858967 -0.03141167 0.1493563 0.07541397 -0.11676352 -0.24420884 -0.05195277 -0.130875 -0.07451312 0.037765298 0.09152299
cottage cheese 0.01436446 -0.20662208 -0.034081332 0.08442603 0.06151394 -0.21725899 -0.016727854 -0.07177129 -0.02023718 0.10684594 0.018272199 -0.0897293 0.027963212 -0.07680186 0.025263691 0.12687609 -0.032616567 0.13477202 0.07421313 0.016279474 -0.045784462 -0.033883024 -0.09487089 -0.04815916 0.10321866 -0.118541874 0.022830363 -0.04445898 -0.0729561 -0.06192382 -0.059073083 0.037816178 0.039015945 -0.07948172 -0.103381984 0.13994014 -0.06670939 0.03357444 0.045421265 0.2112492 -0.0142923705 -0.04576248 -0.083022974 0.13148198 0.14817041 0.035470985 -0.15190329 -0.1545906 -0.14221992 0.11160619 0.061354656 0.17958312 0.08577923 -0.018894635 -0.013164129 0.0239518 0.038810045 -0.057940718 -0.06646475 -0.028829155 -0.15420252 -0.11210667 0.068956755 0.023281947
avocado 0.18888229 -0.08675552 -0.0016993388 0.0062634964 0.031937435 -0.0899413 0.10891175 -0.16099894 -0.08935999 0.12933527 -0.06951351 0.033195507 -0.034466162 -0.06625582 0.061954893 0.20857473 0.076209284 0.06315886 -0.13350897 0.07532719 0.054421265 -0.025720455 -0.06589004 -0.0368925 -0.013028871 0.023442317 -0.031204224 -0.035001047 -0.027658988 -0.023272594 0.008925215 -0.02446138 -0.017524622 -0.118019335 -0.16430698 -0.05537475 0.051982496 -0.10614931 0.01355825 0.12825829 0.05585583 -0.011308794 -0.067046955 0.034149997 0.11434214 0.015619345 -0.09524431 -0.11876327 0.054228522 -0.023013324 -0.089764595 0.11233425 0.028910605 -0.022437228 -0.12731631 0.036229834 -0.029017746 -0.14576666 -0.17638661 0.03245803 -0.19052008 0.01711517 -0.03274748 -0.057418488
yam 0.07276514 -0.17418258 0.07730254 0.023437435 -0.08488268 -0.16409615 0.030496141 -0.085606106 -0.050687026 0.10338024 -0.06814728 -0.027612371 -0.057502173 -0.14951383 0.07109094 0.13269636 0.09411712 0.08047609 -0.031452797 0.052537136 0.06809263 0.008272005 -0.0800049 -0.052971493 -0.048412897 0.057368837 -0.06747437 -0.030081725 -0.10884379 0.052336544 0.010600506 0.057814512 0.000862681 -0.13019904 -0.06456796 0.040318586 0.011399412 -0.14002189 -0.058641758 0.0015168254 -0.003199948 0.03519337 -0.00085727894 0.087335296 0.063782044 0.14173163 0.057303682 -0.08221417 -0.017859248 -0.0035553137 -0.031892598 0.014884412 0.06281223 -0.108690545 0.047540825 0.05320997 0.06612886 -0.2330103 -0.20253514 0.0026247576 -0.19803756 -0.15396997 -0.083052434 0.10358733
walnut 0.1287987 -0.09374334 0.12004052 0.05939122 0.06793885 -0.053523213 0.085149296 -0.06725737 -0.09307059 0.041175053 -0.032869518 -0.10234717 -0.030916067 -0.07835109 -0.08423846 0.17715321 0.08182675 0.005813391 -0.04917686 0.13481902 0.042347424 0.014864349 -0.018365987 -0.09389511 0.09328938 0.034227856 0.022510132 0.022728726 -0.029754018 -0.046020295 0.04045505 -0.026920324 0.03158297 -0.057923675 -0.103105895 0.03837322 0.08253461 -0.105169624 -0.042989258 0.14229801 0.030802522 -0.04144946 -0.04860914 0.09225755 0.14029802 -0.034636017 -0.10959103 -0.08946486 -0.04997032 0.06517972 -0.005622242 0.09390837 0.023694113 -0.04538051 -0.13195434 0.0025900786 0.057701055 -0.12708223 -0.19603321 0.1005019 -0.14553177 -0.08260594 0.013269684 -0.07447027
cauliflower 0.08083384 -0.17578813 0.028851721 0.02892472 0.10337079 -0.18578197 0.070327185 -0.06358226 -0.14780127 0.028636111 -0.06287645 0.059112985 -0.026754767 -0.04714912 -0.07641809 0.046624836 -0.05366578 0.1050026 0.0101074455 0.02307437 0.07908037 0.08117998 -0.014224958 0.0026709782 -0.0066813263 0.029814696 0.07564062 -0.05131163 -0.0018330319 -0.09031816 -0.0072610127 0.02730865 0.009752152 -0.013022219 0.015135494 0.05621255 0.06736925 -0.0044094627 -0.027727237 0.10804809 -0.018322378 0.0066234847 -0.11860472 0.11282645 0.012890408 0.015118157 0.011387706 -0.12744 -0.021997394 -0.03712215 0.012452936 0.12561572 0.037555393 0.025804322 0.0015265535 0.122023575 0.14064588 -0.14790797 -0.23522983 0.061602697 -0.22431761 -0.051986933 -0.0025735395 0.00040989846
blackcurrant 0.13669005 -0.1866912 0.055095326 0.01772946 0.12023963 -0.14272127 0.056845907 -0.048241187 -0.068642415 -0.018054806 0.039111428 -0.024087807 0.09498348 -0.11478003 0.0051573375 0.10518336 -0.05428447 -0.043571647 -0.03570725 0.017480547 0.00026898918 0.10764926 -0.040831648 0.038807034 0.08692226 0.0008463883 -0.058634896 -0.048136648 -0.036457717 -0.040407687 -0.010448662 -0.022760006 0.11804345 -0.078216314 -0.093561 0.07202846 0.06247035 -0.06192015 -0.0017788508 0.024068452 0.06335514 -0.0665714 -0.07393785 0.12324886 0.2035834 -0.028302673 -0.09444843 0.0012175842 -0.13719675 0.039022107 -0.050617397 0.14564143 0.0002011526 -0.0105682295 -0.10881496 0.038687877 0.0074024606 -0.14956383 -0.17895338 -0.05733513 -0.19145504 -0.08426334 0.071536206 0.0589778
almond 0.12342942 -0.17890128 0.06727651 -0.017316664 0.10490565 -0.11923119 -0.09504302 -0.057992548 -0.01992287 0.12204885 -0.046369772 -0.077334695 -0.039708566 -0.08163079 -0.023458218 0.20615171 0.0041821133 0.051834244 0.06763962 0.091399774 0.085381284 -0.043173708 -0.0201768 -0.038940314 -0.027898818 -0.042490672 0.020308418 -0.05023714 -0.039109204 0.10375252 0.052175604 -0.049791507 -0.010519001 -0.06878933 -0.11859107 0.0419731 0.041309204 -0.06591515 -0.028670443 0.14309017 -0.08128247 0.0018232814 -0.014507707 0.020802815 0.1136724 0.026742896 0.024617124 -0.09915147 -0.053744286 -0.05364408 0.03156972 0.0350617 0.1251984 0.12713808 -0.029508542 0.049068037 0.049406894 -0.12389758 -0.2507239 0.014986809 -0.1395357 -0.03549004 0.024371628 0.015874136
broccoli 0.027903294 -0.16613206 0.016337343 0.118243076 -0.011053157 -0.09619649 0.0885128 -0.08761597 -0.05891932 0.0069773104 -0.021685084 -0.060651477 -0.051543195 -0.13546032 -0.09948052 0.19134298 0.03214044 0.08332159 -0.050421268 0.07668676 -0.064830616 0.039122988 -0.01017514 0.022013713 -0.02340305 0.0053136502 -0.1260034 0.014359117 -0.118388124 -0.049094133 -0.09476031 -0.07890211 0.07946303 -0.066897064 -0.1071875 0.026580803 0.12026936 0.0010010125 0.065918505 0.1689654 -0.06996654 -0.07651945 -0.049003553 0.004526587 0.10208991 0.04888519 -0.076409765 -0.09810155 -0.05206543 -0.0024507192 0.036836106 0.07841186 0.045078892 -0.06386394 0.03547332 0.030885031 0.075553454 -0.12549448 -0.20465066 -0.032665223 -0.16988464 -0.15330409 0.074833386 -0.0044900137
endive 0.061047796 -0.19911487 0.11860328 0.025409961 0.123440124 -0.11245177 -0.017486213 0.017352311 0.013269143 0.06368621 -0.08410629 -0.00819917 -0.035525974 -0.1479053 -0.061720613 0.15750459 -0.057097886 0.11023126 0.096793495 0.063138984 0.05473985 0.012594263 -0.07628639 -0.011395547 0.020842792 0.023001151 -0.029745786 0.07250079 -0.08922846 -0.048541997 -0.009707308 -0.104155384 0.14369477 -0.0069230082 -0.029291613 -0.015667962 0.053303853 -0.051285278 -0.045847215 0.1328921 -0.06612183 -0.019359488 -0.0327337 0.046383455 0.08534009 -0.058300883 -0.091979176 -0.13554695 0.024878524 -0.0030117743 0.012875641 0.0488665 0.13101192 0.093098536 -0.2129987 0.0030379791 0.16010217 -0.090072066 -0.17483452 -0.08141699 -0.15189853 -0.07286695 0.012597374 0.07901694
clove 0.14565013 -0.10235506 0.14705847 0.036345255 0.013515876 -0.16353907 0.09557072 -0.03428064 -0.13241225 0.14308923 -0.0717191 -0.06746663 -0.069063246 -0.006311416 -0.022555493 0.14299957 0.0654689 0.06974539 -0.016970355 -0.06079288 0.040390573 0.038976297 0.05624303 -0.0029028957 0.0144809075 0.110705405 0.008806345 -0.1315783 -0.12489196 0.0030853502 0.043711226 -0.0169791 0.05084054 -0.07768051 -0.11574847 0.020926625 0.0013281539 -0.103848904 -0.09686627 0.055190533 -0.052987482 0.056887046 0.07557664 0.056041475 -0.05764997 0.054421436 -0.12673105 -0.07872297 -0.14818558 -0.04217426 0.01525489 0.05055186 0.054818053 0.001144765 -0.05734856 0.110562235 0.1444858 -0.040998396 -0.09627642 0.02698535 -0.26607713 -0.10481971 -0.0115752295 0.07920778
strawberry wine 0.034568347 -0.20644687 -0.030245712 -0.06871725 0.104585394 -0.22377574 -0.03427714 -0.028325431 -0.10564158 0.14078541 -0.046642814 -0.19323513 -0.023499178 -0.031317342 0.0005409871 0.13821846 0.0387223 0.07138205 0.00073143176 0.064773254 -0.024249023 -0.03901424 -0.02412051 -0.060653288 0.010118325 0.07470435 0.020650793 -0.08585634 -0.072153896 -0.024712922 -0.0636312 0.021173825 0.006851922 -0.17447542 -0.11410381 0.14016277 0.0743129 0.12172675 0.037366677 0.06787936 0.046283923 0.05851809 -0.037078 0.04196421 0.16687517 -0.02942742 -0.11556919 -0.050029274 -0.04692243 -0.061748426 0.068171956 0.14766808 0.039662335 -0.07223966 0.07812342 0.0024313987 0.043662645 -0.12229968 -0.13310635 0.07107331 -0.030488547 -0.12570974 0.04287587 0.10427652
plum brandy 0.055039354 -0.12908752 0.090682626 -0.0793187 0.109320745 -0.21833298 0.055020265 -0.06184791 -0.09554866 0.07531341 -0.031885162 -0.053630903 0.0031456468 -0.09106832 -0.011068893 0.13587627 0.011031855 0.05931336 0.08512924 0.05866558 0.022697948 0.042028453 -0.036827873 -0.04994816 0.028820662 0.13136144 0.044015642 0.0065760133 -0.08756187 -0.008169183 0.013024058 0.006138614 0.022819314 -0.07789354 -0.066587105 -0.01844988 0.047837675 0.051188044 0.0018698245 0.16264786 -0.050098248 0.06397966 -0.115376264 0.056863934 0.08447763 0.047227293 -0.11661323 -0.096499525 -0.06008379 -0.06944314 0.10687675 -0.055901404 -0.035450563 -0.067540385 -0.100786306 -0.033161227 0.021113578 -0.13469146 -0.10214816 0.03275337 -0.21817216 -0.102855556 -0.011077032 0.12158009
jerusalem artichoke 0.06332756 -0.18516135 0.0049803867 0.040878035 0.11752897 -0.13385871 0.03137237 -0.08101418 -0.0308333 0.14988478 -0.010327775 -0.036978424 -0.047930907 -0.08986149 -0.083047904 0.1550462 0.028199954 0.029172663 -0.035957556 0.06797769 -0.0664642 0.026153946 0.028154038 0.029843017 0.00036632305 0.020327754 0.017495431 -0.014748428 0.006606848 -0.051750258 0.003283478 -0.07613395 0.089755476 -0.111373246 -0.034657035 0.08835725 -0.0037738932 -0.04652503 -0.07034328 0.04840452 -0.024029309 0.07295223 -0.06018142 0.07576561 0.12914167 0.08057512 -0.15659218 -0.07711858 -0.025694994 0.108199865 0.032488257 0.053444676 0.1566632 0.05244333 -0.06934312 0.0580452 0.05054666 -0.08935565 -0.19544844 0.046825934 -0.09035801 -0.1250316 -0.033220705 -0.064234085
cabbage 0.17984922 -0.037113603 0.044454325 0.021601012 0.06718479 -0.18411256 0.052293338 -0.22898932 -0.0957793 0.07384253 0.017211597 -0.10184182 -0.06241407 -0.08211557 0.023658069 0.086068906 0.023213338 0.0075738877 -0.025767794 0.033700902 0.08614364 0.013627373 0.0037801936 0.079718314 -0.031299524 0.02575354 -0.03415934 0.048580036 0.006552161 -0.07599449 -0.12900732 0.024870457 0.082589954 -0.09857336 -0.004124704 -0.01779799 0.020939821 -0.01895479 -0.051175393 0.034179635 -0.045848165 0.02219043 -0.028526237 0.12825312 0.12657894 0.10329424 -0.1259595 -0.08883175 0.04573925 0.006444581 -0.03033272 0.16274127 0.08172438 -0.07076285 -0.11375872 0.036269173 0.11923779 -0.15404081 -0.13659275 0.11746568 -0.1118082 -0.06932506 0.028508747 0.12099712
kohlrabi 0.17240168 -0.26207298 0.06781906 0.01109946 0.03610363 -0.098406754 0.026339414 -0.08590175 -0.06156212 0.17569894 -0.08901965 -0.020820031 0.048284844 -0.123343565 0.029616486 0.09322871 0.030574135 0.055005923 -0.0012715389 0.029532973 0.06562623 -0.047659643 -0.05525488 0.05414945 -0.07046347 -0.035393994 -0.023011856 -0.08524243 -0.054240014 -0.013714145 0.01907491 -0.0029002572 0.17166498 -0.1737654 -0.14591028 0.064477034 0.10202094 -0.047820944 0.0114527615 0.01577673 -0.09454689 0.093554616 0.07492764 0.038465075 0.021273028 0.05343512 -0.0386072 -0.139822 -0.010859938 0.07023474 0.016654478 0.16662051 0.028839236 0.06611049 -0.05804176 0.08861458 0.017007377 -0.015338981 -0.12917268 -0.04422645 -0.1336108 -0.045063887 -0.04758445 0.121669605
european rabbit 0.10889838 -0.12379372 0.113316596 -0.17143206 0.1346312 -0.17622912 -0.026116682 -0.2238811 0.0052891625 0.104235634 -0.010254539 0.049393136 0.015348515 -0.024615478 0.010541931 0.11247782 0.09217219 0.05824155 -0.005139439 0.0054772003 0.055873834 0.11233896 -0.03681499 -0.07614295 0.009229491 0.061618835 0.013073209 -0.06476212 0.08088807 0.07131573 -0.02438486 0.03576243 0.0760951 -0.12899274 -0.07254121 -0.05772411 0.052755706 -0.055759396 0.08736324 0.03763616 0.00051055476 0.08490934 -0.024563808 0.09173366 0.10324238 0.1034674 0.08771872 -0.0778593 -0.024202995 0.02534857 0.1758315 0.12260315 0.025324628 -0.06686428 -0.12218503 0.0030744977 0.116060324 -0.09155957 -0.20332988 0.01711228 -0.11369669 -0.094487004 -0.045608103 0.07401619
sheep cheese 0.0029365558 -0.149567 0.05286778 0.07790273 0.12640966 -0.09586204 0.055073746 -0.04065086 -0.08322335 0.17820707 0.0396742 0.01030461 -0.032573573 -0.11546122 -0.018990435 0.08788181 0.10012911 0.025761902 0.05805334 -0.005821237 0.037474856 0.10051569 -0.06133991 -0.020567123 -0.037425794 0.054188885 -0.029243272 -0.0729925 -0.11196878 -0.0085318275 -0.07303269 -0.12666073 -0.088490374 -0.057622813 0.014781322 -0.03068144 0.049633324 -0.027109843 0.063067 0.12061772 0.010964187 0.016602011 -0.084334284 0.10859926 0.16485682 0.039346565 -0.12836224 -0.08802329 0.010864022 0.011317672 0.097984605 0.17712775 0.04927958 0.043550972 -0.0675265 0.05059291 0.16590472 -0.0201067 -0.13984449 0.05838717 -0.19251458 -0.11672302 0.13645928 0.0370349
wild celery 0.11891094 -0.14366753 0.032951616 -0.034858856 0.036133073 -0.16572025 0.011388247 -0.02389492 -0.14630948 0.10014248 -0.07996765 -0.06807578 -0.06147465 -0.11597689 -0.06439574 0.11488351 -0.11535712 0.07795993 -0.04901294 -0.045506056 0.00930405 0.0060341707 -0.022675073 -0.13955504 0.12367341 0.08441875 0.032007862 -0.04851881 0.015624544 0.023856604 -0.006846952 0.04229868 0.089396544 -0.14767823 -0.04479165 0.039864782 0.047350634 -0.033339918 -0.045733616 0.12228272 0.03146489 -0.12675129 -0.005757237 0.100559175 0.12349651 0.060281776 0.01568881 -0.0015217131 -0.046547733 0.005291322 0.03906542 0.087651126 0.07378226 0.0075938357 -0.015891999 0.09768281 0.040625904 -0.1330917 -0.16141605 0.028835436 -0.16670607 -0.09661663 -0.0426976 0.086125426
flaxseed 0.13485566 -0.2732241 0.12620269 0.021840919 0.036165234 -0.119902894 0.028547471 -0.14447139 -0.1254563 0.04367688 0.03262851 -0.07851529 0.0039724763 -0.033350162 0.0013109233 0.16924761 0.031662248 0.016433127 0.034135647 0.08990446 0.029663673 0.04964646 0.00015373087 -0.05557654 0.043862313 -0.037823778 0.08389114 -0.039530393 -0.026044117 -0.03829114 -0.062400512 -0.021587837 0.06089699 -0.1538843 -0.02742428 0.037773702 0.03294262 0.066285945 0.09049654 0.059570514 -0.027390251 -0.037702024 -0.02770947 0.07533061 0.0764838 0.027611513 -0.03456104 -0.107241996 0.006898436 0.0054567913 0.022210997 0.07277042 0.098029755 0.014957466 -0.010185519 0.020613914 0.012509105 -0.20957491 -0.14217839 0.030021967 -0.1262957 0.024227295 -0.045937747 0.068709426
mandarin orange (clementine, tangerine) 0.19019477 -0.25268665 0.019423677 0.04735145 0.0029204143 -0.10981887 0.048617437 -0.096644096 -0.071757466 0.13465351 0.09627901 -0.010962121 -0.07959797 0.0210526 -0.03758331 0.18436837 0.0455021 0.0068881623 -0.017804038 0.035384547 0.078278504 -0.022364577 0.005311108 -0.010483567 -0.060206663 0.043634154 -0.046635367 -0.13422097 -0.046549864 0.014155293 -0.028206835 0.060063142 0.06810476 -0.061518792 -0.039019104 0.07370926 0.090584375 0.051750507 0.015631221 0.08410043 0.017024681 0.024354856 0.04223453 -0.015229552 0.086777166 0.05965833 -0.012236884 -0.042006284 -0.026355702 -0.05014508 0.0532896 -0.0057453364 -0.008806927 0.09049631 -0.17820495 0.12507349 0.06548989 -0.12102017 -0.20453031 -0.04921121 -0.101482004 -0.13196695 0.1085247 -0.03431481
corn oil 0.047948085 -0.0562973 0.11542228 -0.010568367 0.03268179 -0.22887766 0.009695462 -0.09773605 -0.15317245 0.14228426 0.007956723 -0.022151304 -0.0062220893 -0.062031653 -0.026996613 0.16612472 -0.06809313 -0.009381884 0.010888796 0.014838372 -0.0017996028 -0.033820868 -0.06188304 -0.08214314 0.08014345 -0.02272162 0.02586203 -0.04790127 0.030609677 0.1264365 0.012261819 -0.0781141 0.1501707 -0.12006825 -0.070907585 -0.012406316 0.04160839 0.015034012 -0.07331585 0.059206855 0.07595454 -0.10450536 -0.043241702 -0.070896365 0.09909151 -0.03874518 -0.086106785 -0.13697293 -0.034732383 -0.05583662 0.05308546 0.1315141 -0.0025160145 -0.04300525 -0.15088825 0.13548425 0.0838546 -0.08262588 -0.15762338 -0.039544918 -0.16698098 -0.07657266 0.16067418 -0.015197995
raspberry brandy 0.03114319 -0.15668513 -0.045844562 0.0017875462 0.10755318 -0.13420549 0.034477044 0.042257324 -0.05054281 0.14980268 0.019930525 -0.054643255 0.017589191 -0.19499172 -0.066225834 0.07164501 -0.042698227 0.012431996 0.0500898 -0.10278043 0.073768064 0.06528383 0.014223437 -0.0517698 0.003899048 0.062205967 -0.021483103 -0.05776303 -0.07380418 -0.041474786 -0.037293766 -0.051386356 0.17557234 -0.06747105 -0.06328282 0.06850858 0.0388611 0.040367335 -0.10966022 0.18588245 0.083648376 0.06504354 0.009415444 -0.04970611 0.055290863 -0.034801807 -0.12543203 -0.022734633 -0.07264305 -0.047368843 0.12949088 0.11698246 0.09705106 0.0104899295 -0.03275875 -0.034310352 0.20580389 -0.038798515 -0.15920827 -0.014094192 -0.2237235 -0.16537824 0.10727148 0.002510573
yellow bell pepper 0.10207527 -0.2315092 0.033173274 -0.003196665 0.093294315 -0.10881841 0.055680506 -0.0029026612 -0.16086224 0.21460305 -0.07555513 -0.002797053 0.038834654 -0.051195998 -0.03744445 0.134635 0.0069517265 0.043228917 0.07210411 0.09349577 -0.11607434 0.06037114 -0.058715828 -0.034803044 -0.0040004086 0.05376885 0.009904141 -0.03622352 -0.038135786 -0.062887624 -0.07482588 -0.045650043 0.09446281 -0.15795061 -0.06755175 0.043753535 -0.029183317 -0.0052102883 -0.034433436 0.11636632 0.08653396 -0.013760432 0.006402375 0.034679946 0.04192701 0.031877823 -0.04008851 -0.08166355 -0.038757302 -0.063212395 -0.0113728875 0.0117600225 0.01186968 -0.03116442 -0.07107294 0.1544201 0.02345708 -0.13959514 -0.12324097 -0.0011649078 -0.15668029 -0.06892414 0.012012897 0.012987348
cardamom 0.115705885 -0.1892435 0.07760417 0.04620509 -0.038440533 -0.15357375 -0.017890468 -0.0036632235 -0.22668712 0.17229752 -0.06214441 -0.05069769 -0.05346573 -0.054279514 0.05829816 0.08867432 -0.0016659518 -0.020688102 -0.09716221 -0.006561076 -0.018404556 -0.011905346 -0.060262788 -0.07232921 -0.016950771 -0.011077789 -0.023474254 -0.05163746 -0.10234432 0.07519004 -0.07257825 0.03688163 -0.02304698 -0.06764018 -0.033347186 0.006414112 -0.041438244 -0.025728337 -0.031102428 0.07295305 -0.029861553 0.026697831 -0.024884978 0.04700359 0.11475613 0.08156403 -0.0011016513 -0.12380898 -0.012853513 -0.029477254 0.10539436 0.09151741 0.10225767 -0.06980341 -0.104407005 0.02198606 0.031903695 -0.1427814 -0.09411178 0.12468577 -0.299964 -0.015614803 -0.0532606 -0.025685998
pumpkinseed sunfish 0.112693466 -0.15750821 0.045083523 0.047625102 0.04997903 -0.18092088 0.11251276 -0.013175722 -0.122783035 0.097482845 0.0151153775 -0.07302489 0.025318986 -0.012058997 0.045897085 0.068781644 0.04645926 0.05775901 -0.043486197 0.0106718 0.012539598 0.10683439 -0.09857192 -0.0057034087 -0.0006447015 0.028309116 -0.068486206 -0.093710415 -0.07170526 -0.034454074 -0.106943585 0.017983893 0.011690922 -0.09630867 -0.031904355 -0.06792744 0.06822001 -0.0058129868 0.017743532 0.10472238 0.045241054 0.014592584 0.06090978 0.10812266 0.084671296 -0.01799627 0.018777791 -0.023901416 -0.0058787074 0.06571413 0.06341919 0.04485331 0.07906411 -0.04663359 -0.11145804 0.09005369 0.06257864 -0.12640807 -0.227409 -0.14294027 -0.22893849 -0.092320316 0.089051045 0.062447555
great horned owl 0.13022673 -0.101187184 -0.01783683 0.026395686 0.07278509 -0.08013362 0.003623915 -0.061395697 -0.0043789614 0.1276025 0.023089046 0.014399564 -0.004132024 -0.08170093 -0.046328645 0.08587248 0.014740625 0.040950898 0.003119765 0.042068597 0.047685705 0.063338295 0.03413028 0.010813407 -0.09401639 0.029790947 0.0132974 -0.06282311 -0.03317319 -0.027555441 -0.11221367 -0.0053514503 0.097608864 -0.057073854 -0.0064617377 -0.026827626 -0.013796787 0.025946163 0.01428603 0.047695734 -0.04750408 -0.011628226 -0.031431284 0.030822217 0.23207957 0.07544422 -0.006120983 -0.100692086 0.067072295 -0.06109194 0.04754958 0.11494019 0.16100392 0.01229863 -0.099583894 0.09140282 0.10388949 -0.16852893 -0.27434576 -0.012632582 -0.16904292 -0.082635485 0.03773831 0.046143383
vanilla 0.16398735 -0.26028886 -0.02289865 -0.03979501 0.14030237 -0.12138656 0.06440508 -0.08492684 -0.13849875 0.07250052 -0.010787143 -0.03402362 0.008694897 -0.01212162 -0.000876742 0.092649154 0.011758547 -0.0029168192 0.053056728 0.0009476753 0.007664542 0.120449826 0.10146343 -0.0024847514 0.1066829 0.084434666 0.041828163 -0.034585815 0.046339564 -0.04757148 -0.012337647 0.07815392 0.07405367 -0.015864547 -0.043251395 0.08436773 0.04223346 -0.08783659 0.004594169 0.16982242 -0.05237438 0.04348378 -0.09327554 0.07387745 0.17679086 0.11887036 -0.15402736 -0.081711434 0.051037606 -0.0038406607 -0.026467917 0.13842967 0.097113684 -0.0066618924 -0.021697892 0.100284696 0.09964867 -0.02798618 -0.14502682 0.1153647 -0.08014693 -0.093954295 -0.063109756 0.04008383
mule deer 0.035440903 -0.20840934 0.047981534 -0.06290196 0.08456639 -0.14676352 -0.05522455 -0.14844991 -0.14921279 0.14808391 -0.085360855 0.081753455 -0.008640438 -0.015134536 -0.13383973 0.16241054 0.0835358 -0.016932786 -0.0040441914 0.073131524 0.008315738 0.0548133 0.047202922 -0.07265339 -0.030755153 -0.053139333 -0.026905252 -0.004459725 0.009461798 -0.027293868 -0.051233333 -0.013334508 0.040400073 -0.060460314 -0.08953644 -0.0186114 -0.05352609 -0.0240883 -0.07031268 0.22643189 0.10211156 0.034171198 -0.072845854 0.014178554 0.020297682 0.009464158 -0.0912999 -0.03193531 0.098056786 0.06485291 0.1889972 0.0932166 0.0070330794 0.029543681 -0.007032392 -0.07984517 0.07895257 -0.10957922 -0.19320486 -0.0009431829 -0.14233598 -0.08138107 0.098853 0.028679619
bilberry wine 0.020943439 -0.19590394 0.004164486 0.09971027 0.18804276 -0.15759633 -0.080175325 -0.09773359 -0.070550755 0.09469973 0.009690798 -0.010523709 -0.15397 -0.0609232 0.12122131 0.07345587 -0.027094856 0.03620031 0.063145995 0.106484994 0.006831724 0.016855067 0.015997978 -0.017586261 -0.03281199 0.11289661 0.046092678 -0.011873549 -0.011748723 -0.010566193 -0.06648802 -0.014801636 0.09282792 -0.028215408 0.008296873 0.086107045 0.079022564 0.1383597 0.04956348 0.15017474 -0.055745937 0.017792344 -0.04518748 0.052889176 0.08958414 0.05642559 -0.04340875 -0.08039795 -0.06044237 0.050870176 0.017285643 0.06432328 0.035091456 0.013270041 -0.1436466 0.008004856 0.102539964 -0.081017435 -0.17612521 0.03824271 -0.20187283 -0.21470587 0.06456576 -0.04990645
painted comber 0.124872364 -0.18487309 0.17341779 -0.026441872 0.02347868 -0.16356574 0.058861166 -0.1030856 -0.015622184 -0.015824022 0.05150359 0.0154564725 -0.051826354 -0.13879052 -0.044354178 0.14066862 -0.035920583 0.0186178 -0.009568541 0.006842239 -0.052109323 -0.009879703 -0.0044028643 0.057417117 0.011528917 -0.042885978 -0.053971447 -0.015817272 0.010217273 0.0069276644 -0.0073490012 -0.03423008 0.022826951 0.050039925 -0.041396152 0.115923695 0.014075811 0.019349884 -0.06919114 0.13323592 0.025304822 0.023413511 0.00028974251 0.093302615 0.12730259 0.006802573 -0.09288475 -0.11648575 0.04795429 -0.083744 0.12320564 0.06486371 0.03746866 0.018080758 -0.102439575 0.004228536 0.07685413 -0.13969173 -0.14148356 0.033561897 -0.24588886 -0.063774854 0.04176138 0.06398041
soy bean 0.11464515 -0.1991344 0.016605586 -0.047636006 0.008959746 -0.18545908 0.17719702 0.01217556 -0.11360526 0.1667288 -0.035561495 -0.020646127 0.05150151 -0.02870094 -0.025925558 0.08996819 -0.006761035 -0.14897808 -0.008759686 0.029334435 0.055068076 -0.003776273 0.028689489 -0.006207248 -0.002972455 0.07154927 -0.077468194 0.05305244 0.003524483 -0.07775751 -0.022890588 -0.022685543 0.046039436 -0.110688336 -0.089692965 -0.0057591815 0.0958444 0.0671328 -0.0065421024 0.043320507 -0.06441903 0.030094774 -0.08787331 0.10536303 0.13971554 0.05356346 0.005037269 -0.037322804 -0.016172135 0.03163833 0.08463215 0.12253851 0.16549803 -0.0904941 -0.1861046 0.018262893 -0.002452572 -0.12995519 -0.119312875 -0.010914406 -0.17004561 -0.10999525 0.080848806 0.062793925
pistachio 0.07039956 -0.104597874 -0.00046527205 0.048056573 0.06292338 -0.16170664 0.06294549 -0.1224864 -0.09355 0.20286128 -0.08003524 -0.073475465 -0.0746831 -0.098439805 -0.052794605 0.14661196 0.051795896 -0.015542565 -0.07817176 0.11466142 0.06238588 0.09294993 0.07254612 0.037291605 -0.033735957 0.07371552 -0.02640408 0.015753468 0.02404757 -0.10036313 0.0059389905 -0.040792685 0.07716283 -0.1601822 -0.0021389464 0.15051235 0.03686151 -0.0083911205 0.008654234 0.023882056 -0.04382085 -0.025486495 0.062375844 0.017598387 0.10089317 -0.053497422 -0.06650447 -0.109250486 -0.06833656 -0.003168362 0.08941516 0.11013836 -0.013582368 -0.013080485 -0.052882455 0.07778763 0.07909022 -0.0522603 -0.14982067 0.018728737 -0.12549531 -0.05477074 0.003930522 0.081948675
nance 0.08414344 -0.14924267 0.03302776 0.032583136 0.07179838 -0.16885711 0.09795497 -0.13401602 -0.043498095 0.04793824 0.03500503 -0.0375631 -0.15068631 -0.042608157 -0.114556864 0.13240996 0.05183519 -0.03274723 0.088339776 0.04128759 0.08390927 0.038249217 -0.06304016 0.013152487 -0.0300839 0.0051863207 -0.108832456 -0.01690176 0.018267969 -0.012136644 -0.0035693988 -0.00043596653 0.076913126 -0.06364843 -0.038062565 -0.022932036 0.007046679 0.10531571 -0.04964442 0.039362222 -0.00078038906 0.00073402683 0.014561548 0.0013133977 0.12450526 0.016320981 -0.11551245 -0.13307118 -0.15848511 0.03362768 0.12697706 0.17773385 -0.02253849 0.04865881 -0.07110421 -0.018930495 0.09329411 -0.118037954 -0.18542938 0.06476249 -0.16127932 -0.01833152 0.011760924 0.021320442
soursop 0.1113833 -0.19891992 0.08427572 0.06491515 0.09105866 -0.18602572 -0.040616896 -0.1756139 -0.047270615 0.08441084 0.07853416 -0.03924789 -0.026618004 -0.04270921 -0.16473809 0.030109078 -0.030249342 0.045400612 -0.06464637 0.02652912 -0.024218678 -0.022367278 -0.06127921 0.026071213 0.0126187345 -0.003092286 -0.03796246 -0.011533207 -0.07375193 0.057153363 0.020202277 -0.051561136 0.07278806 -0.20262003 -0.051510807 0.025257649 0.09647189 -0.035744723 -0.079950355 0.13292874 0.10474481 0.007070592 0.009811924 0.013472641 0.041172188 0.05528511 -0.018186687 -0.15468924 -0.0016652961 0.01348755 0.12716712 0.14242758 0.08342716 -0.07375142 0.0013875368 0.056083817 0.088994004 0.022623476 -0.20400128 0.052798625 -0.10679055 -0.034012243 0.035783187 0.048125673
leek 0.11754354 -0.17955966 0.018563394 0.011535119 0.18760403 -0.12283893 0.0015566213 -0.06737016 -0.19418839 0.099166945 -0.009747502 -0.042546157 -0.010386626 -0.07156992 -0.022265518 0.0887073 -0.08540738 -0.0023436632 0.071041584 0.08289199 -0.007330716 0.04421157 0.008953061 -0.007135176 0.03652388 0.06356881 0.021213986 0.047036808 -0.017003572 -0.09213372 -0.05686104 -0.029836707 0.019534076 -0.065235324 -0.013067312 0.0820572 0.053885322 0.03423286 -0.057021037 0.09456451 -0.05151329 -0.036594603 -0.06729509 -0.0066264053 0.09479608 -0.0071543767 -0.041562207 -0.1349925 -0.017983677 0.070340425 0.09304734 0.15125753 0.054583166 0.0006756785 -0.11063231 0.11902077 0.052832298 -0.07612168 -0.17013632 0.06882845 -0.09080032 -0.094071984 0.011656884 0.037135333
safflower 0.030229704 -0.2093255 0.053343896 0.0131644625 0.081032954 -0.1991083 0.15376517 -0.091882415 -0.032136627 0.12301215 0.042547677 -0.03810517 0.035174664 -0.076875076 -0.045728184 0.1222198 -0.005763072 0.029384192 0.069060296 0.08398276 -0.058161043 0.00784908 0.028119888 -0.06476896 0.057408113 -0.030290805 -0.048944857 -0.011463056 -0.08613618 -0.011116733 0.0077268183 -0.037391726 0.066003256 -0.15262857 -0.07602058 0.019519662 0.004881177 0.038353138 -0.05419427 0.06414913 0.024278048 0.021218248 -0.11805963 0.047449294 0.10732209 0.03047096 -0.08976568 -0.06150032 -0.11290705 0.11182157 0.030903848 0.056079946 0.03336047 0.019100683 -0.0970738 0.03632184 0.002368572 -0.12261714 -0.120267704 0.013947539 -0.13650659 -0.138126 -0.011647489 0.043788116
sweet bay 0.15323184 -0.18749075 0.07728631 -0.0321686 0.058919087 -0.032803107 -0.044991244 -0.044142533 -0.054632172 0.11112506 0.1447254 0.035994627 -0.13430962 -0.09041402 0.1405011 0.17991978 -0.051840886 -0.03871695 -0.051145803 0.084427334 0.016833935 -0.010457226 0.023240244 -0.030815242 0.057202414 0.061016697 -0.013900351 -0.056704205 -0.14156245 0.05954665 0.05101003 -0.0962208 0.15194438 -0.0896615 -0.1172159 0.042803667 0.06313914 -0.10225104 -0.01142114 0.117379755 -0.035809506 0.11027219 -0.08284923 0.106417246 0.13687998 -0.008959743 -0.070164405 -0.16870943 -0.0036392263 0.054175533 0.09053442 0.075566456 0.014601619 0.019798987 -0.0099380305 0.18778203 -0.007902424 -0.049647495 -0.093273506 -0.0763294 -0.15009965 -0.058887325 -0.07663419 0.08659484
chia 0.17209698 -0.084375076 0.099643745 -0.015018468 0.12857012 -0.028925253 0.002020847 -0.056773897 -0.029068308 0.071798995 -0.057405777 -0.08355416 -0.0077069416 -0.14862259 -0.13136096 0.05471922 -0.06415264 -0.023869045 -0.0069049685 -0.0033799438 0.04521654 0.08906781 0.0022296698 -0.07821674 0.06312602 -0.026209807 0.025950443 -0.17318839 -0.1434274 -0.0013796096 -0.07350965 -0.038502272 0.05903677 -0.09533846 -0.108844794 0.035624474 0.037308205 0.023714107 -0.03830967 0.12851268 -0.0034275083 -0.08688359 -0.008731945 0.10636726 0.10022841 0.05637376 -0.0026921118 -0.11924628 0.009503704 -0.024539601 0.09727637 0.09049973 0.08742199 0.046144884 -0.059805486 0.12604554 0.062257938 -0.15784022 -0.2312595 -0.006882432 -0.14681514 -0.047227714 -0.013354683 -0.03750927
cashew nut 0.10473336 -0.22973362 -0.004649825 0.045912016 0.14841789 -0.17147961 0.07775677 -0.14786267 -0.12720281 0.067597 -0.12952116 0.10585616 0.006482828 0.019449249 -0.023276845 0.11576333 -0.00109805 0.039792404 0.097285554 0.02179458 0.10001833 0.04373448 -0.015624212 -0.016305057 0.09678022 0.017011993 -0.038028512 -0.041204166 -0.035021774 -0.05857745 -0.058278058 0.012870612 -0.00092665246 -0.20677267 -0.07591223 -0.04618651 0.06302036 -0.03084925 -0.082569815 0.04306044 -0.06966824 0.020846322 -0.008962663 0.101424284 0.045833565 -0.006819492 -0.054000303 -0.15630688 -0.030552303 -0.11454519 0.11288396 -0.009556223 0.034801684 0.07967621 0.0042197597 0.03574702 -0.0007334263 -0.1782068 -0.22617559 -0.065052256 -0.099368244 -0.027141603 -0.017660374 0.029573772
sunflower 0.1333886 -0.12965822 -0.01709392 0.1091166 0.041964743 -0.16891861 0.06226653 -0.082572035 -0.024821056 0.08369308 -0.017575752 -0.008636093 -0.028942982 -0.028588783 0.059644178 0.17234674 0.05810872 0.036844917 -0.026905125 -0.0026664317 0.083893135 0.019191017 -0.13005072 -0.032471597 0.09593208 -0.022702109 0.053138733 -0.0943676 0.041734707 -0.011796835 -0.011420464 0.05181214 0.03380668 -0.17714785 -0.107838854 0.2501588 0.062447574 -0.047149897 0.03002202 0.05328425 0.07818069 0.07282802 0.042543374 0.017938994 0.11314514 0.014149451 -0.12358472 -0.16773827 -0.0031216731 -0.13158044 0.08590135 0.017943831 0.005966966 -0.015213918 -0.030028656 0.12112164 0.056334402 -0.2150044 -0.16228783 0.020608768 -0.057752635 -0.16876332 0.010736913 -0.0068666427
wild boar 0.11388047 -0.24357802 0.03394129 -0.02716002 0.23325746 -0.06358241 0.038542796 0.008185279 -0.073483564 0.16502793 0.040014103 0.030415922 -0.029440789 -0.012170081 -0.1371118 0.04617028 -0.007936386 0.06699223 -0.10906052 -0.007133123 0.1206598 0.018245352 -0.05047912 -0.037184525 -0.0065871305 0.12160481 0.048028015 0.016763557 -0.046775408 0.026152369 -0.030226663 0.06788822 0.12295402 -0.0025133677 -0.076607145 -0.05443392 -0.080303036 -0.034264788 -0.06461343 0.06895351 -0.022612492 -0.04381366 -0.03266545 0.104893 0.03794221 0.012969559 -0.020124102 -0.059219208 -0.09130318 -0.084560014 0.05704375 0.12902437 -0.022264302 0.036410708 -0.105692536 0.00440785 0.1218125 -0.123595834 -0.19336234 0.028440256 -0.23863359 -0.010136387 0.07698649 0.1098782
